{"learner":{"attributes":{"scikit_learn":"{\"_estimator_type\": \"regressor\"}"},"feature_names":["temperature_2m_mean","precipitation_sum","wind_speed_10m_max","wind_direction_10m_dominant","pm25_lag1","pm25_lag2","pm25_lag3"],"feature_types":["float","float","float","float","float","float","float"],"gradient_booster":{"model":{"gbtree_model_param":{"num_parallel_tree":"1","num_trees":"200"},"iteration_indptr":[0,1,2,3,4,5,6,7,8,9,10,11,12,13,14,15,16,17,18,19,20,21,22,23,24,25,26,27,28,29,30,31,32,33,34,35,36,37,38,39,40,41,42,43,44,45,46,47,48,49,50,51,52,53,54,55,56,57,58,59,60,61,62,63,64,65,66,67,68,69,70,71,72,73,74,75,76,77,78,79,80,81,82,83,84,85,86,87,88,89,90,91,92,93,94,95,96,97,98,99,100,101,102,103,104,105,106,107,108,109,110,111,112,113,114,115,116,117,118,119,120,121,122,123,124,125,126,127,128,129,130,131,132,133,134,135,136,137,138,139,140,141,142,143,144,145,146,147,148,149,150,151,152,153,154,155,156,157,158,159,160,161,162,163,164,165,166,167,168,169,170,171,172,173,174,175,176,177,178,179,180,181,182,183,184,185,186,187,188,189,190,191,192,193,194,195,196,197,198,199,200],"tree_info":[0,0,0,0,0,0,0,0,0,0,0,0,0,0,0,0,0,0,0,0,0,0,0,0,0,0,0,0,0,0,0,0,0,0,0,0,0,0,0,0,0,0,0,0,0,0,0,0,0,0,0,0,0,0,0,0,0,0,0,0,0,0,0,0,0,0,0,0,0,0,0,0,0,0,0,0,0,0,0,0,0,0,0,0,0,0,0,0,0,0,0,0,0,0,0,0,0,0,0,0,0,0,0,0,0,0,0,0,0,0,0,0,0,0,0,0,0,0,0,0,0,0,0,0,0,0,0,0,0,0,0,0,0,0,0,0,0,0,0,0,0,0,0,0,0,0,0,0,0,0,0,0,0,0,0,0,0,0,0,0,0,0,0,0,0,0,0,0,0,0,0,0,0,0,0,0,0,0,0,0,0,0,0,0,0,0,0,0,0,0,0,0,0,0,0,0,0,0,0,0],"trees":[{"base_weights":[3.24894E-2,-5.8645267E0,7.5682898E0,6.3703337E0,-6.3446774E0,1.9651703E1,6.6048517E0,1.1344106E0,3.238789E1,-7.4546003E0,-3.028559E0,1.5234776E1,3.1674253E1,3.3565488E0,8.402922E0,-8.741051E-1,1.376203E1,1.6089404E0,4.05894E1,-8.010581E0,-6.305838E0,4.7253475E0,-3.7788262E0,9.5403805E0,2.272991E1,9.81646E0,4.3807285E1,1.4112929E1,2.5814452E0,4.793034E0,1.0991286E1,7.0894027E-1,-1.9423784E-1,-2.737317E-2,1.7339404E0,4.8635025E0,8.226269E-1,-8.1615967E-1,-5.405355E-1,-1.9522396E-1,-6.4702004E-1,1.3357493E-1,2.1339405E0,-5.792251E-1,-3.893388E-2,1.1475347E0,2.1044714E-2,2.8775034E0,1.3807284E0,1.9301691E0,2.1620293E-1,4.7513366E0,5.226268E-1,2.9530747E0,4.7254187E-1,5.008024E-1,6.6808276E-2,8.5722065E-1,3.963975E-1,2.3757803E0,9.6316785E-1],"categories":[],"categories_nodes":[],"categories_segments":[],"categories_sizes":[],"default_left":[0,0,0,0,0,0,0,0,0,0,0,0,0,0,0,0,0,0,0,0,0,0,0,0,0,0,0,0,0,0,0,0,0,0,0,0,0,0,0,0,0,0,0,0,0,0,0,0,0,0,0,0,0,0,0,0,0,0,0,0,0],"id":0,"left_children":[1,3,5,7,9,11,13,15,17,19,21,23,25,27,29,31,33,-1,35,37,39,41,43,45,47,49,51,53,55,57,59,-1,-1,-1,-1,-1,-1,-1,-1,-1,-1,-1,-1,-1,-1,-1,-1,-1,-1,-1,-1,-1,-1,-1,-1,-1,-1,-1,-1,-1,-1],"loss_changes":[8.705542E4,6.496582E3,9.881992E3,5.6847476E3,3.871539E3,2.8629219E3,4.6326562E3,9.2508923E2,2.8264648E2,4.5532422E2,1.5711294E3,1.8318008E3,3.8131885E3,2.3480388E3,4.7406406E3,2.860008E2,2.5580225E2,0E0,6.414414E2,1.6440234E2,1.7556348E2,1.3230554E3,1.6629172E3,5.2112524E2,6.814629E2,4.664975E2,1.1815254E3,2.6104185E3,1.2409579E3,6.427822E2,4.9436953E3,0E0,0E0,0E0,0E0,0E0,0E0,0E0,0E0,0E0,0E0,0E0,0E0,0E0,0E0,0E0,0E0,0E0,0E0,0E0,0E0,0E0,0E0,0E0,0E0,0E0,0E0,0E0,0E0,0E0,0E0],"parents":[2147483647,0,0,1,1,2,2,3,3,4,4,5,5,6,6,7,7,8,8,9,9,10,10,11,11,12,12,13,13,14,14,15,15,16,16,18,18,19,19,20,20,21,21,22,22,23,23,24,24,25,25,26,26,27,27,28,28,29,29,30,30],"right_children":[2,4,6,8,10,12,14,16,18,20,22,24,26,28,30,32,34,-1,36,38,40,42,44,46,48,50,52,54,56,58,60,-1,-1,-1,-1,-1,-1,-1,-1,-1,-1,-1,-1,-1,-1,-1,-1,-1,-1,-1,-1,-1,-1,-1,-1,-1,-1,-1,-1,-1,-1],"split_conditions":[1E1,1.2768586E1,1.4761098E1,2.7244525E2,7E0,3.8E1,1.5E1,9E0,3.3879367E2,5E0,1.6394829E1,1.8828E2,9.983735E1,1.978519E1,1.2510414E2,9.793059E0,9.60855E1,1.6089404E0,1.1901798E1,3.104656E2,3E0,2.9184045E2,8E0,1.2510414E2,1.4E1,1.2984975E1,3.3452023E2,1.2E1,2.4187069E1,3.8415337E1,1.8079027E1,7.0894027E-1,-1.9423784E-1,-2.737317E-2,1.7339404E0,4.8635025E0,8.226269E-1,-8.1615967E-1,-5.405355E-1,-1.9522396E-1,-6.4702004E-1,1.3357493E-1,2.1339405E0,-5.792251E-1,-3.893388E-2,1.1475347E0,2.1044714E-2,2.8775034E0,1.3807284E0,1.9301691E0,2.1620293E-1,4.7513366E0,5.226268E-1,2.9530747E0,4.7254187E-1,5.008024E-1,6.6808276E-2,8.5722065E-1,3.963975E-1,2.3757803E0,9.6316785E-1],"split_indices":[5,2,2,3,6,5,5,5,3,5,2,3,3,3,3,2,3,0,2,3,6,3,5,3,6,2,3,5,2,3,2,0,0,0,0,0,0,0,0,0,0,0,0,0,0,0,0,0,0,0,0,0,0,0,0,0,0,0,0,0,0],"split_type":[0,0,0,0,0,0,0,0,0,0,0,0,0,0,0,0,0,0,0,0,0,0,0,0,0,0,0,0,0,0,0,0,0,0,0,0,0,0,0,0,0,0,0,0,0,0,0,0,0,0,0,0,0,0,0,0,0,0,0,0,0],"sum_hessian":[1.957E3,1.098E3,8.59E2,4.1E1,1.057E3,6.2E1,7.97E2,3.5E1,6E0,7.91E2,2.66E2,4.7E1,1.5E1,2.85E2,5.12E2,3.1E1,4E0,3E0,3E0,5.29E2,2.62E2,2.3E1,2.43E2,2.8E1,1.9E1,6E0,9E0,1.8E1,2.67E2,2.15E2,2.97E2,3E0,2.8E1,1E0,3E0,2E0,1E0,4.98E2,3.1E1,1E1,2.52E2,2E1,3E0,1.52E2,9.1E1,2.3E1,5E0,1E1,9E0,2E0,4E0,8E0,1E0,6E0,1.2E1,1.17E2,1.5E2,3.7E1,1.78E2,2.7E1,2.7E2],"tree_param":{"num_deleted":"0","num_feature":"7","num_nodes":"61","size_leaf_vector":"1"}},{"base_weights":[1.6727416E-1,-5.895604E0,8.900949E0,-6.844133E0,-1.181242E0,5.6201267E0,2.5587732E1,-7.5460467E0,-5.6087837E0,-2.3459685E0,5.2641287E0,3.8449085E0,8.8609085E0,2.216971E1,4.1514763E1,-2.9884534E0,-7.7282276E0,5.9558856E-1,-5.7552285E0,1.1784712E1,-2.8612068E0,-2.2234833E0,1.1954757E1,1.136218E1,3.177535E0,7.165606E0,1.1957384E1,5.6263977E1,2.0352343E1,1.8674469E1,2.5706448E1,-6.930252E-2,-6.9922113E-1,-7.828225E-1,-4.8179373E-1,-4.3495885E-1,3.7931085E-1,-2.2053052E-2,-5.8364505E-1,3.44336E-1,2.6745737E0,-3.3513424E-1,-4.3087628E-2,2.4942498E-1,-3.6107707E-1,7.5926703E-1,2.8326247E0,2.367492E0,7.99834E-1,-5.6996595E-2,3.8276014E-1,5.581974E-1,1.0195072E0,1.756937E0,6.458852E-1,1.9707628E0,1.0124469E1,2.9545534E0,1.5404354E0,1.4707934E0,3.272967E0],"categories":[],"categories_nodes":[],"categories_segments":[],"categories_sizes":[],"default_left":[0,0,0,0,0,0,0,0,0,0,0,0,0,0,0,0,0,0,0,0,0,0,0,0,0,0,0,0,0,0,0,0,0,0,0,0,0,0,0,0,0,0,0,0,0,0,0,0,0,0,0,0,0,0,0,0,0,0,0,0,0],"id":1,"left_children":[1,3,5,7,9,11,13,15,17,19,21,23,25,27,29,31,33,35,37,39,41,43,45,47,49,51,53,55,57,-1,59,-1,-1,-1,-1,-1,-1,-1,-1,-1,-1,-1,-1,-1,-1,-1,-1,-1,-1,-1,-1,-1,-1,-1,-1,-1,-1,-1,-1,-1,-1],"loss_changes":[1.03254375E5,5.1388516E3,4.3598535E4,7.883672E2,1.4687258E3,3.814752E3,6.211133E3,4.8173047E2,3.223457E2,1.2350283E3,1.5294861E3,2.1411992E3,1.1531914E3,5.670703E3,4.570794E4,2.2491266E2,1.3224219E2,1.5880917E2,1.5290527E2,6.566758E2,1.8914673E2,1.0717895E2,9.2755005E2,1.2602725E3,9.766311E2,6.867119E2,2.4168525E3,6.2263584E3,4.366578E3,0E0,1.1407588E3,0E0,0E0,0E0,0E0,0E0,0E0,0E0,0E0,0E0,0E0,0E0,0E0,0E0,0E0,0E0,0E0,0E0,0E0,0E0,0E0,0E0,0E0,0E0,0E0,0E0,0E0,0E0,0E0,0E0,0E0],"parents":[2147483647,0,0,1,1,2,2,3,3,4,4,5,5,6,6,7,7,8,8,9,9,10,10,11,11,12,12,13,13,14,14,15,15,16,16,17,17,18,18,19,19,20,20,21,21,22,22,23,23,24,24,25,25,26,26,27,27,28,28,30,30],"right_children":[2,4,6,8,10,12,14,16,18,20,22,24,26,28,30,32,34,36,38,40,42,44,46,48,50,52,54,56,58,-1,60,-1,-1,-1,-1,-1,-1,-1,-1,-1,-1,-1,-1,-1,-1,-1,-1,-1,-1,-1,-1,-1,-1,-1,-1,-1,-1,-1,-1,-1,-1],"split_conditions":[1.1E1,8E0,3.3E1,5E0,2.2E1,1.9E1,2.1361166E1,1.3276144E1,8.904918E0,9.069501E0,1E1,1.5349684E1,1.8828E2,9.161168E0,2.16445E1,1.3256999E1,3.3019037E2,8.044499E0,1.2768586E1,1.731746E1,2.6495938E2,2.5E1,3.0821552E1,1.2E1,1.2E1,2.4040335E1,2.4187069E1,1.4494192E1,1.8455048E1,1.8674469E1,2.6721579E1,-6.930252E-2,-6.9922113E-1,-7.828225E-1,-4.8179373E-1,-4.3495885E-1,3.7931085E-1,-2.2053052E-2,-5.8364505E-1,3.44336E-1,2.6745737E0,-3.3513424E-1,-4.3087628E-2,2.4942498E-1,-3.6107707E-1,7.5926703E-1,2.8326247E0,2.367492E0,7.99834E-1,-5.6996595E-2,3.8276014E-1,5.581974E-1,1.0195072E0,1.756937E0,6.458852E-1,1.9707628E0,1.0124469E1,2.9545534E0,1.5404354E0,1.4707934E0,3.272967E0],"split_indices":[4,4,4,4,5,4,0,2,0,0,4,2,3,0,0,0,3,0,2,2,3,5,2,4,4,0,2,2,2,0,0,0,0,0,0,0,0,0,0,0,0,0,0,0,0,0,0,0,0,0,0,0,0,0,0,0,0,0,0,0,0],"split_type":[0,0,0,0,0,0,0,0,0,0,0,0,0,0,0,0,0,0,0,0,0,0,0,0,0,0,0,0,0,0,0,0,0,0,0,0,0,0,0,0,0,0,0,0,0,0,0,0,0,0,0,0,0,0,0,0,0,0,0,0,0],"sum_hessian":[1.948E3,1.15E3,7.98E2,9.57E2,1.93E2,6.68E2,1.3E2,6.07E2,3.5E2,1.64E2,2.9E1,4.33E2,2.35E2,1.09E2,2.1E1,2.4E1,5.83E2,8E0,3.42E2,5E0,1.59E2,1.4E1,1.5E1,3.4E1,3.99E2,1.54E2,8.1E1,4E0,1.05E2,1E0,2E1,1.6E1,8E0,5.62E2,2.1E1,3E0,5E0,5E0,3.37E2,4E0,1E0,1.32E2,2.7E1,3E0,1.1E1,1.3E1,2E0,6E0,2.8E1,5.9E1,3.4E2,1.03E2,5.1E1,3.9E1,4.2E1,3E0,1E0,3.5E1,7E1,9E0,1.1E1],"tree_param":{"num_deleted":"0","num_feature":"7","num_nodes":"61","size_leaf_vector":"1"}},{"base_weights":[-2.5452736E-1,-4.9371376E0,5.8102326E0,6.1694207E0,-5.4018364E0,1.5466875E1,5.150854E0,1.21032E0,2.5320333E1,-6.11591E0,-2.1920018E0,1.0037137E1,3.1401672E1,4.7687926E0,1.49463625E1,-1.250218E0,8.730847E0,1.3521808E1,3.6688038E1,-4.505042E0,-6.459754E0,-3.262508E0,6.179728E0,1.2886894E0,1.452564E1,9.285869E0,4.0199154E1,3.0166821E0,6.087055E0,8.431708E0,2.6481033E1,2.876049E-1,-4.524671E-1,7.5509645E-2,1.0901762E0,1.6282822E0,5.3331864E-1,4.429306E0,6.9364864E-1,-4.805297E-1,3.65208E-1,-6.829687E-1,-5.5474997E-1,-4.3453383E-1,-2.4980198E-1,2.140469E0,1.6072536E-1,6.9924736E-1,-4.5761815E-1,1.9742024E0,6.3599914E-1,1.7091379E0,-1.6149321E-1,4.435213E0,3.4876785E-1,5.3506804E-1,6.9269195E-2,2.2574565E0,5.721867E-1,9.3507785E-1,-4.5153138E-1,1.6611747E-1,2.905422E0],"categories":[],"categories_nodes":[],"categories_segments":[],"categories_sizes":[],"default_left":[0,0,0,0,0,0,0,0,0,0,0,0,0,0,0,0,0,0,0,0,0,0,0,0,0,0,0,0,0,0,0,0,0,0,0,0,0,0,0,0,0,0,0,0,0,0,0,0,0,0,0,0,0,0,0,0,0,0,0,0,0,0,0],"id":2,"left_children":[1,3,5,7,9,11,13,15,17,19,21,23,25,27,29,31,33,35,37,39,41,43,45,47,49,51,53,55,57,59,61,-1,-1,-1,-1,-1,-1,-1,-1,-1,-1,-1,-1,-1,-1,-1,-1,-1,-1,-1,-1,-1,-1,-1,-1,-1,-1,-1,-1,-1,-1,-1,-1],"loss_changes":[5.455459E4,5.6280723E3,5.249834E3,4.1480913E3,2.372627E3,4.2704707E3,2.8665762E3,6.77079E2,7.110112E2,4.4225586E2,1.7319014E3,1.5912456E3,2.156041E3,1.7301113E3,1.9559077E3,3.9132864E2,1.4760022E2,4.8814087E1,5.9780615E2,3.922793E2,1.9800781E2,1.2987292E2,1.4971439E3,5.337782E2,1.0245103E3,4.5303302E2,1.2174707E3,1.7700032E3,2.4659033E3,2.8020618E2,5.9039746E2,0E0,0E0,0E0,0E0,0E0,0E0,0E0,0E0,0E0,0E0,0E0,0E0,0E0,0E0,0E0,0E0,0E0,0E0,0E0,0E0,0E0,0E0,0E0,0E0,0E0,0E0,0E0,0E0,0E0,0E0,0E0,0E0],"parents":[2147483647,0,0,1,1,2,2,3,3,4,4,5,5,6,6,7,7,8,8,9,9,10,10,11,11,12,12,13,13,14,14,15,15,16,16,17,17,18,18,19,19,20,20,21,21,22,22,23,23,24,24,25,25,26,26,27,27,28,28,29,29,30,30],"right_children":[2,4,6,8,10,12,14,16,18,20,22,24,26,28,30,32,34,36,38,40,42,44,46,48,50,52,54,56,58,60,62,-1,-1,-1,-1,-1,-1,-1,-1,-1,-1,-1,-1,-1,-1,-1,-1,-1,-1,-1,-1,-1,-1,-1,-1,-1,-1,-1,-1,-1,-1,-1,-1],"split_conditions":[1E1,1.2768586E1,1.4761098E1,2.7244525E2,7E0,3.8E1,3.1152832E1,7E0,3.3879367E2,1.8391737E1,2.7548227E2,1.1065334E1,9.983735E1,1.6E1,2.4E1,1.1002834E1,9.394499E0,3.3019037E2,1.1436168E1,1.8204042E1,5E0,8E0,1.7065859E1,1.6E1,1.3736165E1,1.2984975E1,1.3952832E1,2.4187069E1,9.161168E0,2.8881378E2,2.4593807E1,2.876049E-1,-4.524671E-1,7.5509645E-2,1.0901762E0,1.6282822E0,5.3331864E-1,4.429306E0,6.9364864E-1,-4.805297E-1,3.65208E-1,-6.829687E-1,-5.5474997E-1,-4.3453383E-1,-2.4980198E-1,2.140469E0,1.6072536E-1,6.9924736E-1,-4.5761815E-1,1.9742024E0,6.3599914E-1,1.7091379E0,-1.6149321E-1,4.435213E0,3.4876785E-1,5.3506804E-1,6.9269195E-2,2.2574565E0,5.721867E-1,9.3507785E-1,-4.5153138E-1,1.6611747E-1,2.905422E0],"split_indices":[5,2,2,3,5,5,0,5,3,2,3,0,3,5,5,0,0,3,0,2,5,5,2,5,0,2,0,2,0,3,3,0,0,0,0,0,0,0,0,0,0,0,0,0,0,0,0,0,0,0,0,0,0,0,0,0,0,0,0,0,0,0,0],"split_type":[0,0,0,0,0,0,0,0,0,0,0,0,0,0,0,0,0,0,0,0,0,0,0,0,0,0,0,0,0,0,0,0,0,0,0,0,0,0,0,0,0,0,0,0,0,0,0,0,0,0,0,0,0,0,0,0,0,0,0,0,0,0,0],"sum_hessian":[1.919E3,1.083E3,8.36E2,4.3E1,1.04E3,5.2E1,7.84E2,3.5E1,8E0,8.5E2,1.9E2,4E1,1.2E1,7.56E2,2.8E1,2.7E1,8E0,5E0,3E0,1.52E2,6.98E2,1.69E2,2.1E1,1.4E1,2.6E1,4E0,8E0,3.26E2,4.3E2,1.9E1,9E0,1.2E1,1.5E1,2E0,6E0,3E0,2E0,2E0,1E0,1.47E2,5E0,4.92E2,2.06E2,6.8E1,1.01E2,4E0,1.7E1,7E0,7E0,1.5E1,1.1E1,2E0,2E0,7E0,1E0,1.62E2,1.64E2,8E0,4.22E2,1.8E1,1E0,1E0,8E0],"tree_param":{"num_deleted":"0","num_feature":"7","num_nodes":"63","size_leaf_vector":"1"}},{"base_weights":[-4.045999E-2,-5.2740235E0,6.5449047E0,-5.859668E0,-2.622583E0,4.6163373E0,1.8410435E1,-6.261349E0,-4.91764E0,-3.7896452E0,-9.177278E-1,2.6247292E0,7.00791E0,1.0164282E1,2.2162672E1,-6.3740273E0,-3.5171483E0,-1.098533E0,-5.0432005E0,-1.5283824E0,-4.17751E0,-2.4701192E0,2.7826247E0,-1.1762869E0,3.104356E0,6.7353997E0,3.555643E0,1.8626776E1,4.891139E0,2.9507467E1,1.6192354E1,-6.614313E-1,-5.805401E-1,-4.1008815E-1,5.82996E-1,-1.8227604E-1,1.1989174E-1,-5.607212E-1,-4.32564E-1,2.3505063E-1,-2.4025808E-1,-5.1753205E-1,-3.316475E-1,4.8004413E-1,-2.809445E-1,1.234349E0,-8.8625304E-2,-3.3726874E-1,3.0329555E-2,2.0489676E-1,6.062286E-1,8.3821577E-1,3.525066E-1,3.093476E0,3.9904466E-1,1.7897819E-1,1.49307E0,6.799956E-1,3.475411E0,8.396458E-1,2.5024033E0],"categories":[],"categories_nodes":[],"categories_segments":[],"categories_sizes":[],"default_left":[0,0,0,0,0,0,0,0,0,0,0,0,0,0,0,0,0,0,0,0,0,0,0,0,0,0,0,0,0,0,0,0,0,0,0,0,0,0,0,0,0,0,0,0,0,0,0,0,0,0,0,0,0,0,0,0,0,0,0,0,0],"id":3,"left_children":[1,3,5,7,9,11,13,15,17,19,21,23,25,27,29,31,33,35,37,39,41,43,45,47,49,51,-1,53,55,57,59,-1,-1,-1,-1,-1,-1,-1,-1,-1,-1,-1,-1,-1,-1,-1,-1,-1,-1,-1,-1,-1,-1,-1,-1,-1,-1,-1,-1,-1,-1],"loss_changes":[6.810274E4,1.6942676E3,1.9938047E4,3.1014258E2,3.9644604E2,3.572963E3,3.5495977E3,1.7176562E2,1.25851074E2,9.798584E1,4.8365823E2,7.565791E2,2.4211934E3,1.6938516E3,3.1618164E3,4.3853516E1,1.7122592E2,1.88241E1,8.299365E1,7.007472E1,6.961023E1,1.5904477E2,8.8788055E2,1.5376144E2,1.1332664E3,1.7679111E3,0E0,2.578712E3,7.828201E2,4.0526465E3,3.0947275E3,0E0,0E0,0E0,0E0,0E0,0E0,0E0,0E0,0E0,0E0,0E0,0E0,0E0,0E0,0E0,0E0,0E0,0E0,0E0,0E0,0E0,0E0,0E0,0E0,0E0,0E0,0E0,0E0,0E0,0E0],"parents":[2147483647,0,0,1,1,2,2,3,3,4,4,5,5,6,6,7,7,8,8,9,9,10,10,11,11,12,12,13,13,14,14,15,15,16,16,17,17,18,18,19,19,20,20,21,21,22,22,23,23,24,24,25,25,27,27,28,28,29,29,30,30],"right_children":[2,4,6,8,10,12,14,16,18,20,22,24,26,28,30,32,34,36,38,40,42,44,46,48,50,52,-1,54,56,58,60,-1,-1,-1,-1,-1,-1,-1,-1,-1,-1,-1,-1,-1,-1,-1,-1,-1,-1,-1,-1,-1,-1,-1,-1,-1,-1,-1,-1,-1,-1],"split_conditions":[1E1,7E0,3.4E1,5E0,1.4435529E2,1.7E1,1.0469739E2,3.2712793E2,3E0,4.02174E1,1.4E1,7E0,1.06E2,3.8415337E1,2.3407657E2,1.6791673E2,1.6E1,2.3233784E2,1.350001E2,4E0,7E0,1.4845876E2,9E0,1.2E1,2.2078082E2,2.2E1,3.555643E0,4.5E1,2E-1,1.4E1,2.90515E2,-6.614313E-1,-5.805401E-1,-4.1008815E-1,5.82996E-1,-1.8227604E-1,1.1989174E-1,-5.607212E-1,-4.32564E-1,2.3505063E-1,-2.4025808E-1,-5.1753205E-1,-3.316475E-1,4.8004413E-1,-2.809445E-1,1.234349E0,-8.8625304E-2,-3.3726874E-1,3.0329555E-2,2.0489676E-1,6.062286E-1,8.3821577E-1,3.525066E-1,3.093476E0,3.9904466E-1,1.7897819E-1,1.49307E0,6.799956E-1,3.475411E0,8.396458E-1,2.5024033E0],"split_indices":[4,4,4,4,3,4,3,3,5,3,6,6,5,3,3,3,6,3,3,6,6,3,5,4,3,5,0,4,1,5,3,0,0,0,0,0,0,0,0,0,0,0,0,0,0,0,0,0,0,0,0,0,0,0,0,0,0,0,0,0,0],"split_type":[0,0,0,0,0,0,0,0,0,0,0,0,0,0,0,0,0,0,0,0,0,0,0,0,0,0,0,0,0,0,0,0,0,0,0,0,0,0,0,0,0,0,0,0,0,0,0,0,0,0,0,0,0,0,0,0,0,0,0,0,0],"sum_hessian":[1.974E3,1.1E3,8.74E2,9E2,2E2,7.53E2,1.21E2,6.27E2,2.73E2,1.18E2,8.2E1,4.12E2,3.41E2,3.9E1,8.2E1,6.01E2,2.6E1,9E0,2.64E2,1.8E1,1E2,5.8E1,2.4E1,4.6E1,3.66E2,3.39E2,2E0,1.4E1,2.5E1,3.5E1,4.7E1,4.15E2,1.86E2,2.5E1,1E0,7E0,2E0,1.44E2,1.2E2,3E0,1.5E1,4.4E1,5.6E1,2E0,5.6E1,6E0,1.8E1,1.8E1,2.8E1,2.71E2,9.5E1,2.23E2,1.16E2,7E0,7E0,2E1,5E0,7E0,2.8E1,2.6E1,2.1E1],"tree_param":{"num_deleted":"0","num_feature":"7","num_nodes":"61","size_leaf_vector":"1"}},{"base_weights":[1.4714013E-1,-3.8134375E0,5.1780977E0,1.1273874E1,-4.047609E0,1.2478612E1,4.6456656E0,2.0436012E1,8.5908306E-1,-4.6883283E0,-1.2255195E0,8.108881E0,2.8553505E1,-1.9168644E0,5.2732763E0,4.061848E0,8.866954E0,1.0246313E1,-3.2867415E0,-5.8141135E-2,-4.7905555E0,6.975973E0,-1.8768398E0,6.9314847E0,2.306687E0,3.7634594E0,8.313062E0,1.5490427E1,-3.187306E0,4.964227E0,1.3509873E1,4.136432E-1,1.3795506E0,1.9060712E-1,1.3463398E0,-4.0942803E-1,-8.452635E-2,4.6206376E-1,-2.3933776E-1,-5.276522E-1,-3.856363E-1,7.5875E-2,1.925867E0,-4.7467303E-1,-6.4509206E-2,1.2076744E0,3.376265E-1,2.9323214E-1,1.4918011E0,-2.393196E-1,4.351246E0,-5.940114E-1,-1.296742E-1,-6.1430657E-1,5.147809E-1,7.182676E-1,2.2915123E0],"categories":[],"categories_nodes":[],"categories_segments":[],"categories_sizes":[],"default_left":[0,0,0,0,0,0,0,0,0,0,0,0,0,0,0,0,0,0,0,0,0,0,0,0,0,0,0,0,0,0,0,0,0,0,0,0,0,0,0,0,0,0,0,0,0,0,0,0,0,0,0,0,0,0,0,0,0],"id":4,"left_children":[1,3,5,7,9,11,13,15,17,19,21,23,25,27,29,-1,31,33,35,37,39,41,43,45,-1,-1,47,49,51,53,55,-1,-1,-1,-1,-1,-1,-1,-1,-1,-1,-1,-1,-1,-1,-1,-1,-1,-1,-1,-1,-1,-1,-1,-1,-1,-1],"loss_changes":[3.899402E4,3.9142852E3,3.2926484E3,1.604614E3,1.9452676E3,3.8425537E3,3.3256738E3,1.7412666E3,3.8393726E2,4.157793E2,1.086794E3,6.678523E2,1.8928037E3,1.6195342E3,1.8038848E3,0E0,1.0613818E2,5.4831604E1,1.0340363E1,2.2958E2,3.7008008E2,1.1308514E3,6.579793E2,7.823894E2,0E0,0E0,1.3395322E2,2.609811E3,3.4098932E2,1.4793789E3,1.3826387E3,0E0,0E0,0E0,0E0,0E0,0E0,0E0,0E0,0E0,0E0,0E0,0E0,0E0,0E0,0E0,0E0,0E0,0E0,0E0,0E0,0E0,0E0,0E0,0E0,0E0,0E0],"parents":[2147483647,0,0,1,1,2,2,3,3,4,4,5,5,6,6,7,7,8,8,9,9,10,10,11,11,12,12,13,13,14,14,16,16,17,17,18,18,19,19,20,20,21,21,22,22,23,23,26,26,27,27,28,28,29,29,30,30],"right_children":[2,4,6,8,10,12,14,16,18,20,22,24,26,28,30,-1,32,34,36,38,40,42,44,46,-1,-1,48,50,52,54,56,-1,-1,-1,-1,-1,-1,-1,-1,-1,-1,-1,-1,-1,-1,-1,-1,-1,-1,-1,-1,-1,-1,-1,-1,-1,-1],"split_conditions":[1E1,1.1901798E1,1.4761098E1,1.1673667E1,8E0,3.8E1,8E0,4E0,4E0,1.2984975E1,1.4917212E1,1.4494192E1,4E1,9.563251E0,3.1152832E1,4.061848E0,9.563251E0,1.1919502E1,6E0,1.1002834E1,5E0,1.4154915E1,6E0,1.4E1,2.306687E0,3.7634594E0,1.4000713E1,9.394499E0,5E0,8.904918E0,2.6E1,4.136432E-1,1.3795506E0,1.9060712E-1,1.3463398E0,-4.0942803E-1,-8.452635E-2,4.6206376E-1,-2.3933776E-1,-5.276522E-1,-3.856363E-1,7.5875E-2,1.925867E0,-4.7467303E-1,-6.4509206E-2,1.2076744E0,3.376265E-1,2.9323214E-1,1.4918011E0,-2.393196E-1,4.351246E0,-5.940114E-1,-1.296742E-1,-6.1430657E-1,5.147809E-1,7.182676E-1,2.2915123E0],"split_indices":[5,2,2,0,6,5,6,6,5,2,2,2,6,0,0,0,0,0,5,0,5,2,5,6,0,0,2,0,6,0,6,0,0,0,0,0,0,0,0,0,0,0,0,0,0,0,0,0,0,0,0,0,0,0,0,0,0],"split_type":[0,0,0,0,0,0,0,0,0,0,0,0,0,0,0,0,0,0,0,0,0,0,0,0,0,0,0,0,0,0,0,0,0,0,0,0,0,0,0,0,0,0,0,0,0,0,0,0,0,0,0,0,0,0,0,0,0],"sum_hessian":[1.955E3,1.094E3,8.61E2,1.6E1,1.078E3,5.7E1,8.04E2,8E0,8E0,8.78E2,2E2,4.6E1,1.1E1,7E1,7.34E2,2E0,6E0,2E0,6E0,1.9E1,8.59E2,1.4E1,1.86E2,4.4E1,2E0,7E0,4E0,4E0,6.6E1,7.09E2,2.5E1,4E0,2E0,1E0,1E0,4E0,2E0,6E0,1.3E1,5.62E2,2.97E2,1E1,4E0,5.5E1,1.31E2,1.7E1,2.7E1,3E0,1E0,3E0,1E0,2.6E1,4E1,1.1E1,6.98E2,1.6E1,9E0],"tree_param":{"num_deleted":"0","num_feature":"7","num_nodes":"57","size_leaf_vector":"1"}},{"base_weights":[1.5608588E-1,-3.9943151E0,6.053833E0,-4.621207E0,-8.8425344E-1,4.123444E0,1.8554678E1,-1.3697108E0,-4.734744E0,-1.9186091E0,2.73258E0,9.018672E0,3.2383807E0,4.996817E1,1.6882086E1,2.155387E0,-4.266124E0,-5.202948E0,-3.9327257E0,1.2719965E1,-2.1967356E0,9.969126E0,-2.9265982E-1,8.245143E0,3.334381E1,8.3443236E-1,5.4114656E0,1.59309025E1,9.305862E0,2.9336771E1,1.4313415E1,5.9371557E-2,1.2790228E0,-6.460168E-2,-4.904518E-1,-4.615936E-1,-5.4436755E-1,-3.0422208E-1,-4.1540083E-1,1.7269181E0,1.8107677E-1,-2.7853E-1,-1.02263644E-1,1.6778107E0,3.6162496E-1,-3.216487E-1,5.5815995E-1,1.1393058E0,4.626939E-1,5.674348E-1,4.434137E0,-3.931984E-1,1.1303536E-1,-2.0058525E-1,5.7877636E-1,1.9655775E0,2.3781423E-1,1.8107061E0,4.2792487E0,-3.0882588E-1,1.5836586E0],"categories":[],"categories_nodes":[],"categories_segments":[],"categories_sizes":[],"default_left":[0,0,0,0,0,0,0,0,0,0,0,0,0,0,0,0,0,0,0,0,0,0,0,0,0,0,0,0,0,0,0,0,0,0,0,0,0,0,0,0,0,0,0,0,0,0,0,0,0,0,0,0,0,0,0,0,0,0,0,0,0],"id":5,"left_children":[1,3,5,7,9,11,13,15,17,19,21,23,25,27,29,31,33,35,37,39,41,43,45,47,49,51,53,55,-1,57,59,-1,-1,-1,-1,-1,-1,-1,-1,-1,-1,-1,-1,-1,-1,-1,-1,-1,-1,-1,-1,-1,-1,-1,-1,-1,-1,-1,-1,-1,-1],"loss_changes":[4.841722E4,2.2594863E3,1.9638924E4,3.50125E2,7.384968E2,3.0425977E3,4.8835117E3,3.563399E2,3.2988867E2,6.50863E2,9.661781E2,1.7572246E3,3.1403232E3,5.8508965E3,2.93925E3,2.5813626E2,4.0741608E1,5.7679688E1,5.593701E1,1.1761435E2,1.0149762E2,5.01662E2,5.675633E2,1.1546045E3,6.6128125E2,4.092533E2,8.9360254E2,1.5518506E2,0E0,1.793917E3,2.407914E3,0E0,0E0,0E0,0E0,0E0,0E0,0E0,0E0,0E0,0E0,0E0,0E0,0E0,0E0,0E0,0E0,0E0,0E0,0E0,0E0,0E0,0E0,0E0,0E0,0E0,0E0,0E0,0E0,0E0,0E0],"parents":[2147483647,0,0,1,1,2,2,3,3,4,4,5,5,6,6,7,7,8,8,9,9,10,10,11,11,12,12,13,13,14,14,15,15,16,16,17,17,18,18,19,19,20,20,21,21,22,22,23,23,24,24,25,25,26,26,27,27,29,29,30,30],"right_children":[2,4,6,8,10,12,14,16,18,20,22,24,26,28,30,32,34,36,38,40,42,44,46,48,50,52,54,56,-1,58,60,-1,-1,-1,-1,-1,-1,-1,-1,-1,-1,-1,-1,-1,-1,-1,-1,-1,-1,-1,-1,-1,-1,-1,-1,-1,-1,-1,-1,-1,-1],"split_conditions":[1.1E1,8E0,3.6E1,1.2984975E1,2.6495938E2,1.8079027E1,9.161168E0,1.199867E1,5E0,9.793059E0,2.373271E1,1.8E1,1.7E1,1.4494192E1,1E1,1.1919502E1,3E0,2.1068459E1,1.9376562E1,9.232001E0,2.3690336E1,1.2984082E1,3.680637E1,1.3952832E1,1.07507515E1,1.1142417E1,1.0934083E1,1.2522619E1,9.305862E0,2.8995773E2,1.0007002E1,5.9371557E-2,1.2790228E0,-6.460168E-2,-4.904518E-1,-4.615936E-1,-5.4436755E-1,-3.0422208E-1,-4.1540083E-1,1.7269181E0,1.8107677E-1,-2.7853E-1,-1.02263644E-1,1.6778107E0,3.6162496E-1,-3.216487E-1,5.5815995E-1,1.1393058E0,4.626939E-1,5.674348E-1,4.434137E0,-3.931984E-1,1.1303536E-1,-2.0058525E-1,5.7877636E-1,1.9655775E0,2.3781423E-1,1.8107061E0,4.2792487E0,-3.0882588E-1,1.5836586E0],"split_indices":[4,4,4,2,3,2,0,0,4,2,2,2,4,2,6,0,6,2,2,0,0,0,2,0,0,0,0,2,0,3,0,0,0,0,0,0,0,0,0,0,0,0,0,0,0,0,0,0,0,0,0,0,0,0,0,0,0,0,0,0,0],"split_type":[0,0,0,0,0,0,0,0,0,0,0,0,0,0,0,0,0,0,0,0,0,0,0,0,0,0,0,0,0,0,0,0,0,0,0,0,0,0,0,0,0,0,0,0,0,0,0,0,0,0,0,0,0,0,0,0,0,0,0,0,0],"sum_hessian":[1.976E3,1.16E3,8.16E2,9.65E2,1.95E2,7.08E2,1.08E2,3.3E1,9.32E2,1.52E2,4.3E1,1.07E2,6.01E2,4E0,1.04E2,1.5E1,1.8E1,5.85E2,3.47E2,2E0,1.5E2,1.2E1,3.1E1,1.05E2,2E0,2.86E2,3.15E2,3E0,1E0,1.6E1,8.8E1,1.4E1,1E0,3E0,1.5E1,1.76E2,4.09E2,7.2E1,2.75E2,1E0,1E0,9.9E1,5.1E1,5E0,7E0,2.1E1,1E1,5.5E1,5E1,1E0,1E0,1.6E1,2.7E2,1.5E1,3E2,2E0,1E0,1E1,6E0,7E0,8.1E1],"tree_param":{"num_deleted":"0","num_feature":"7","num_nodes":"61","size_leaf_vector":"1"}},{"base_weights":[1.0534051E-1,-3.6423047E0,3.8184257E0,2.1423264E0,-3.841932E0,1.7019306E1,3.5253737E0,7.0625645E-1,1.6267605E0,-4.161416E0,-2.4152246E0,1.1443356E1,3.7856255E0,1.4172018E0,5.355447E0,4.670372E0,-1.4038162E0,-4.4247093E0,-3.5179067E0,4.1348495E0,-3.1508048E0,7.956115E0,2.1659668E1,-3.9254565E0,2.1768234E0,2.5188818E1,4.62489E0,4.9574804E-2,1.1852026E0,-2.723983E-1,3.365514E-1,-4.6897465E-1,-4.1019186E-1,-3.7569532E-1,-1.4361341E-1,1.8602924E0,1.16365746E-1,-3.4006214E-1,4.7409102E-2,1.5985221E0,-1.06750466E-1,-9.668002E-2,2.9524093E0,1.0564994E0,-4.3810102E-1,1.5732668E-1,7.305483E-1,6.0208874E0,2.661385E-1,9.45183E-1,3.1431314E-1],"categories":[],"categories_nodes":[],"categories_segments":[],"categories_sizes":[],"default_left":[0,0,0,0,0,0,0,0,0,0,0,0,0,0,0,0,0,0,0,0,0,0,0,0,0,0,0,0,0,0,0,0,0,0,0,0,0,0,0,0,0,0,0,0,0,0,0,0,0,0,0],"id":6,"left_children":[1,3,5,7,9,11,13,15,-1,17,19,21,-1,23,25,27,29,31,33,35,37,39,41,43,45,47,49,-1,-1,-1,-1,-1,-1,-1,-1,-1,-1,-1,-1,-1,-1,-1,-1,-1,-1,-1,-1,-1,-1,-1,-1],"loss_changes":[2.712096E4,1.1283584E3,3.7273057E3,6.5791223E2,4.175E2,2.0066992E3,3.692335E3,2.6585806E2,0E0,1.1404883E2,8.513785E2,4.689546E2,0E0,1.8226492E3,7.3165703E3,3.2391217E2,1.413901E2,2.6875E1,1.0756885E2,7.521263E2,1.4378503E2,1.1038381E3,7.403203E2,4.1595117E2,1.2019174E3,1.4040178E4,3.5178613E3,0E0,0E0,0E0,0E0,0E0,0E0,0E0,0E0,0E0,0E0,0E0,0E0,0E0,0E0,0E0,0E0,0E0,0E0,0E0,0E0,0E0,0E0,0E0,0E0],"parents":[2147483647,0,0,1,1,2,2,3,3,4,4,5,5,6,6,7,7,9,9,10,10,11,11,13,13,14,14,15,15,16,16,17,17,18,18,19,19,20,20,21,21,22,22,23,23,24,24,25,25,26,26],"right_children":[2,4,6,8,10,12,14,16,-1,18,20,22,-1,24,26,28,30,32,34,36,38,40,42,44,46,48,50,-1,-1,-1,-1,-1,-1,-1,-1,-1,-1,-1,-1,-1,-1,-1,-1,-1,-1,-1,-1,-1,-1,-1,-1],"split_conditions":[8E0,1.2984975E1,1.2074766E1,3.3879367E2,7E0,3.2E1,1.3297096E2,7.386355E1,1.6267605E0,5E0,1.6394829E1,2.9E1,3.7856255E0,8E0,1.3575612E2,5E0,2.3066727E2,1.289647E2,1.3E0,3E0,3.8773186E1,9E0,1.0739832E1,1.9182497E0,3.9E1,2.3408997E1,2.026899E1,4.9574804E-2,1.1852026E0,-2.723983E-1,3.365514E-1,-4.6897465E-1,-4.1019186E-1,-3.7569532E-1,-1.4361341E-1,1.8602924E0,1.16365746E-1,-3.4006214E-1,4.7409102E-2,1.5985221E0,-1.06750466E-1,-9.668002E-2,2.9524093E0,1.0564994E0,-4.3810102E-1,1.5732668E-1,7.305483E-1,6.0208874E0,2.661385E-1,9.45183E-1,3.1431314E-1],"split_indices":[5,2,2,3,6,5,3,3,0,5,2,6,0,6,3,6,3,3,1,5,2,6,2,3,6,2,2,0,0,0,0,0,0,0,0,0,0,0,0,0,0,0,0,0,0,0,0,0,0,0,0],"split_type":[0,0,0,0,0,0,0,0,0,0,0,0,0,0,0,0,0,0,0,0,0,0,0,0,0,0,0,0,0,0,0,0,0,0,0,0,0,0,0,0,0,0,0,0,0,0,0,0,0,0,0],"sum_hessian":[1.947E3,9.69E2,9.78E2,3.2E1,9.37E2,2E1,9.58E2,3E1,2E0,7.64E2,1.73E2,1.7E1,3E0,4.46E2,5.12E2,1E1,2E1,5.38E2,2.26E2,1.7E1,1.56E2,1.4E1,3E0,5.5E1,3.91E2,1.7E1,4.95E2,7E0,3E0,1.6E1,4E0,2.88E2,2.5E2,2.02E2,2.4E1,2E0,1.5E1,1.46E2,1E1,7E0,7E0,1E0,2E0,1E0,5.4E1,3.51E2,4E1,6E0,1.1E1,1.15E2,3.8E2],"tree_param":{"num_deleted":"0","num_feature":"7","num_nodes":"51","size_leaf_vector":"1"}},{"base_weights":[1.95026E-2,-2.9199097E0,3.6361923E0,3.6348379E0,-3.2337432E0,1.1795158E0,5.882021E0,1.4341778E0,2.8583885E1,-3.7670999E0,-2.0082667E0,5.0079784E0,3.9082974E-1,1.0024939E1,3.0330882E0,-4.5753464E-1,7.6668305E0,3.4840386E0,4.9071905E-1,-4.0336537E0,-2.9801452E0,-2.5893323E0,2.8873172E0,3.3988815E1,3.6944E0,-1.7055692E-1,4.4158916E0,5.3957565E1,8.016684E0,-1.1940984E0,4.6031175E0,6.1939424E-1,-1.4514695E-1,4.2728606E-1,1.2538064E0,-4.27363E-1,-2.712913E-1,2.4742989E-2,-3.8661072E-1,-3.1111345E-1,-1.7278217E-1,1.4833506E0,3.1612925E-2,4.0650535E0,1.0332694E0,2.3824008E-1,2.0273912E0,-4.0318188E-1,2.7451841E-2,1.6852497E-1,1.8218443E0,1.2567223E0,1.71845E1,6.156811E-1,1.8796047E0,-1.6652963E-1,7.585988E-1,3.00514E0,3.7964877E-1],"categories":[],"categories_nodes":[],"categories_segments":[],"categories_sizes":[],"default_left":[0,0,0,0,0,0,0,0,0,0,0,0,0,0,0,0,0,0,0,0,0,0,0,0,0,0,0,0,0,0,0,0,0,0,0,0,0,0,0,0,0,0,0,0,0,0,0,0,0,0,0,0,0,0,0,0,0,0,0],"id":7,"left_children":[1,3,5,7,9,11,13,15,17,19,21,23,25,27,29,31,33,-1,-1,35,37,39,41,43,45,47,49,51,53,55,57,-1,-1,-1,-1,-1,-1,-1,-1,-1,-1,-1,-1,-1,-1,-1,-1,-1,-1,-1,-1,-1,-1,-1,-1,-1,-1,-1,-1],"loss_changes":[2.088979E4,2.2416484E3,4.8537812E3,2.704224E3,6.6892676E2,1.2722529E3,5.398925E3,5.57656E2,4.215647E2,1.3901074E2,9.0638745E2,2.6153716E3,7.9387836E2,1.60660625E4,1.8239819E3,2.5360231E2,1.282876E2,0E0,0E0,1.5797266E2,5.328252E2,1.2184387E2,1.0396511E3,5.2741455E1,1.4743611E3,5.321395E2,1.5899597E3,3.6875594E4,3.49296E3,3.2291974E2,3.99138E3,0E0,0E0,0E0,0E0,0E0,0E0,0E0,0E0,0E0,0E0,0E0,0E0,0E0,0E0,0E0,0E0,0E0,0E0,0E0,0E0,0E0,0E0,0E0,0E0,0E0,0E0,0E0,0E0],"parents":[2147483647,0,0,1,1,2,2,3,3,4,4,5,5,6,6,7,7,8,8,9,9,10,10,11,11,12,12,13,13,14,14,15,15,16,16,19,19,20,20,21,21,22,22,23,23,24,24,25,25,26,26,27,27,28,28,29,29,30,30],"right_children":[2,4,6,8,10,12,14,16,18,20,22,24,26,28,30,32,34,-1,-1,36,38,40,42,44,46,48,50,52,54,56,58,-1,-1,-1,-1,-1,-1,-1,-1,-1,-1,-1,-1,-1,-1,-1,-1,-1,-1,-1,-1,-1,-1,-1,-1,-1,-1,-1,-1],"split_conditions":[1E1,1.3276144E1,1.31593E2,3.3879367E2,6E0,3.512129E1,2.4187069E1,7E0,1.1436168E1,2.1402565E2,2.7548227E2,1.0007002E1,3.4E1,1.3575612E2,1.4E1,8.684084E0,2.2078082E2,3.4840386E0,4.9071905E-1,2.6857002E1,2.026899E1,1.3575612E2,1.7065859E1,9.563251E0,3.3430775E1,1.1840332E1,1.0278345E2,2.3233253E1,3.7E1,4.3027153E1,9.161168E0,6.1939424E-1,-1.4514695E-1,4.2728606E-1,1.2538064E0,-4.27363E-1,-2.712913E-1,2.4742989E-2,-3.8661072E-1,-3.1111345E-1,-1.7278217E-1,1.4833506E0,3.1612925E-2,4.0650535E0,1.0332694E0,2.3824008E-1,2.0273912E0,-4.0318188E-1,2.7451841E-2,1.6852497E-1,1.8218443E0,1.2567223E0,1.71845E1,6.156811E-1,1.8796047E0,-1.6652963E-1,7.585988E-1,3.00514E0,3.7964877E-1],"split_indices":[5,2,3,3,5,3,2,5,0,3,3,0,5,3,5,0,3,0,0,0,2,3,2,0,3,0,3,2,5,2,0,0,0,0,0,0,0,0,0,0,0,0,0,0,0,0,0,0,0,0,0,0,0,0,0,0,0,0,0],"split_type":[0,0,0,0,0,0,0,0,0,0,0,0,0,0,0,0,0,0,0,0,0,0,0,0,0,0,0,0,0,0,0,0,0,0,0,0,0,0,0,0,0,0,0,0,0,0,0,0,0,0,0,0,0,0,0,0,0,0,0],"sum_hessian":[1.963E3,1.083E3,8.8E2,4.9E1,1.034E3,4.21E2,4.59E2,4.6E1,3E0,7.19E2,3.15E2,7.1E1,3.5E2,1.86E2,2.73E2,3.6E1,1E1,2E0,1E0,5.34E2,1.85E2,2.82E2,3.3E1,2E0,6.9E1,3.08E2,4.2E1,7E0,1.79E2,7.4E1,1.99E2,4E0,3.2E1,7E0,3E0,4.5E2,8.4E1,4E1,1.45E2,1.74E2,1.08E2,5E0,2.8E1,1E0,1E0,6.5E1,4E0,3.1E1,2.77E2,3.6E1,6E0,6E0,1E0,1.54E2,2.5E1,7.1E1,3E0,5E0,1.94E2],"tree_param":{"num_deleted":"0","num_feature":"7","num_nodes":"59","size_leaf_vector":"1"}},{"base_weights":[1.3744482E-1,-2.1593E0,7.871389E0,-3.3860736E0,1.2022415E0,4.7162924E0,1.5922023E1,-3.7590103E0,-1.8196019E0,9.418691E-1,1.0442687E1,4.4725676E0,2.9304037E0,2.9609062E1,1.1709307E1,-3.5606885E0,-6.3629313E0,-2.4243152E0,1.2545087E0,1.4455242E1,8.015748E-1,3.26511E0,4.956735E0,3.1516445E0,7.791046E0,1.0700634E2,1.9912733E1,2.697476E0,1.6243044E1,-4.0783262E-1,-3.184547E-1,-7.0226336E-1,-4.5003095E-1,2.745629E-1,-2.5574142E-1,1.2069031E0,-9.435787E-3,2.1747711E-1,2.564833E0,-3.131513E-1,1.19594336E-1,9.19821E-3,2.4369757E0,-3.8244906E-1,3.3856773E-1,1.2025075E0,2.3343018E-1,1.6325274E1,-2.743226E-1,2.3415315E0,-6.0809404E-1,-7.4244685E-2,1.1027535E0,6.2688065E0,1.2984607E0],"categories":[],"categories_nodes":[],"categories_segments":[],"categories_sizes":[],"default_left":[0,0,0,0,0,0,0,0,0,0,0,0,0,0,0,0,0,0,0,0,0,0,0,0,0,0,0,0,0,0,0,0,0,0,0,0,0,0,0,0,0,0,0,0,0,0,0,0,0,0,0,0,0,0,0],"id":8,"left_children":[1,3,5,7,9,11,13,15,17,19,21,23,-1,25,27,29,31,33,35,37,39,-1,41,43,45,47,49,51,53,-1,-1,-1,-1,-1,-1,-1,-1,-1,-1,-1,-1,-1,-1,-1,-1,-1,-1,-1,-1,-1,-1,-1,-1,-1,-1],"loss_changes":[3.4832277E4,6.2393315E3,1.132974E4,6.4044824E2,9.645773E2,1.8105562E3,6.918412E3,4.3901855E2,4.027168E2,7.3727344E2,1.1783341E3,1.3869175E3,0E0,1.9632822E4,3.9601963E3,1.4920215E2,4.458008E1,1.308822E2,5.262833E2,4.9404626E2,6.117709E2,0E0,9.4215405E2,3.9172266E2,2.074395E3,1.8966895E4,2.6006016E3,9.8244916E2,9.023004E3,0E0,0E0,0E0,0E0,0E0,0E0,0E0,0E0,0E0,0E0,0E0,0E0,0E0,0E0,0E0,0E0,0E0,0E0,0E0,0E0,0E0,0E0,0E0,0E0,0E0,0E0],"parents":[2147483647,0,0,1,1,2,2,3,3,4,4,5,5,6,6,7,7,8,8,9,9,10,10,11,11,13,13,14,14,15,15,16,16,17,17,18,18,19,19,20,20,22,22,23,23,24,24,25,25,26,26,27,27,28,28],"right_children":[2,4,6,8,10,12,14,16,18,20,22,24,-1,26,28,30,32,34,36,38,40,-1,42,44,46,48,50,52,54,-1,-1,-1,-1,-1,-1,-1,-1,-1,-1,-1,-1,-1,-1,-1,-1,-1,-1,-1,-1,-1,-1,-1,-1,-1,-1],"split_conditions":[1.7E1,1E1,3.3E1,7E0,3.479759E2,1.06E2,1.2E1,1E1,2.672298E2,3E0,5E0,2.3407657E2,2.9304037E0,3.5E1,1.8E1,4E0,6E0,3E0,2.7244525E2,1.3E1,6E0,3.26511E0,1.6E1,5E0,1.9E1,1E-1,5.3E1,5.9E1,1.9E1,-4.0783262E-1,-3.184547E-1,-7.0226336E-1,-4.5003095E-1,2.745629E-1,-2.5574142E-1,1.2069031E0,-9.435787E-3,2.1747711E-1,2.564833E0,-3.131513E-1,1.19594336E-1,9.19821E-3,2.4369757E0,-3.8244906E-1,3.3856773E-1,1.2025075E0,2.3343018E-1,1.6325274E1,-2.743226E-1,2.3415315E0,-6.0809404E-1,-7.4244685E-2,1.1027535E0,6.2688065E0,1.2984607E0],"split_indices":[4,4,4,4,3,5,6,5,3,5,5,3,0,4,6,4,4,6,3,4,6,0,5,6,5,1,5,4,6,0,0,0,0,0,0,0,0,0,0,0,0,0,0,0,0,0,0,0,0,0,0,0,0,0,0],"split_type":[0,0,0,0,0,0,0,0,0,0,0,0,0,0,0,0,0,0,0,0,0,0,0,0,0,0,0,0,0,0,0,0,0,0,0,0,0,0,0,0,0,0,0,0,0,0,0,0,0,0,0,0,0,0,0],"sum_hessian":[1.959E3,1.511E3,4.48E2,1.107E3,4.04E2,3.23E2,1.25E2,8.93E2,2.14E2,3.94E2,1E1,3.21E2,2E0,2.8E1,9.7E1,8.32E2,6.1E1,1.79E2,3.5E1,3E0,3.91E2,1E0,9E0,2.31E2,9E1,2E0,2.6E1,3.3E1,6.4E1,3.46E2,4.86E2,4.3E1,1.8E1,4E0,1.75E2,3E0,3.2E1,2E0,1E0,3.5E1,3.56E2,8E0,1E0,7E0,2.24E2,5E1,4E1,1E0,1E0,2.3E1,3E0,2.4E1,9E0,3E0,6.1E1],"tree_param":{"num_deleted":"0","num_feature":"7","num_nodes":"55","size_leaf_vector":"1"}},{"base_weights":[6.9181863E-3,-2.6829557E0,4.3498588E0,-3.2568305E0,-4.82699E-1,3.0176103E0,1.2227992E1,-3.0883799E0,-5.050126E0,-1.8873035E0,3.283782E0,2.897711E0,2.7350435E0,2.9154442E1,9.984811E0,-3.4453015E0,-2.3651497E0,-5.783415E0,-2.854028E0,-2.433841E0,2.6613417E0,8.0567515E-1,9.190954E0,2.4365914E0,2.8253033E0,3.1126213E0,3.4051544E1,8.977659E-1,1.2835555E1,-3.534685E-1,-4.532219E-2,-2.4532051E-1,3.162255E-1,-6.5842026E-1,-4.3412575E-1,-4.0900522E-1,3.788884E-2,8.620891E-2,-2.7493116E-1,-2.0032182E-1,1.3879185E0,1.8467568E0,-3.3882175E-2,1.3774574E0,-3.799917E-1,2.1383213E-1,5.0424916E-1,-9.5764354E-2,5.6265754E-1,1.1960233E0,3.8079343E0,6.263935E-1,-7.2412646E-1,1.9778897E0,7.809741E-1],"categories":[],"categories_nodes":[],"categories_segments":[],"categories_sizes":[],"default_left":[0,0,0,0,0,0,0,0,0,0,0,0,0,0,0,0,0,0,0,0,0,0,0,0,0,0,0,0,0,0,0,0,0,0,0,0,0,0,0,0,0,0,0,0,0,0,0,0,0,0,0,0,0,0,0],"id":9,"left_children":[1,3,5,7,9,11,13,15,17,19,21,23,-1,25,27,29,31,33,35,37,39,41,43,-1,45,47,49,51,53,-1,-1,-1,-1,-1,-1,-1,-1,-1,-1,-1,-1,-1,-1,-1,-1,-1,-1,-1,-1,-1,-1,-1,-1,-1,-1],"loss_changes":[2.2662996E4,1.5111084E3,7.7508594E3,2.7138086E2,1.3235111E3,1.7762671E3,3.7715908E3,2.1668848E2,1.12323975E2,4.5893018E2,9.8802026E2,9.1668945E2,0E0,1.4243643E3,2.4753418E3,1.5378125E2,1.4939233E2,3.95531E1,8.9460846E1,1.7185242E2,1.074329E3,9.967422E2,1.243246E3,0E0,9.533833E2,3.6085632E1,4.3435547E2,1.0935686E3,2.3929355E3,0E0,0E0,0E0,0E0,0E0,0E0,0E0,0E0,0E0,0E0,0E0,0E0,0E0,0E0,0E0,0E0,0E0,0E0,0E0,0E0,0E0,0E0,0E0,0E0,0E0,0E0],"parents":[2147483647,0,0,1,1,2,2,3,3,4,4,5,5,6,6,7,7,8,8,9,9,10,10,11,11,13,13,14,14,15,15,16,16,17,17,18,18,19,19,20,20,21,21,22,22,24,24,25,25,26,26,27,27,28,28],"right_children":[2,4,6,8,10,12,14,16,18,20,22,24,-1,26,28,30,32,34,36,38,40,42,44,-1,46,48,50,52,54,-1,-1,-1,-1,-1,-1,-1,-1,-1,-1,-1,-1,-1,-1,-1,-1,-1,-1,-1,-1,-1,-1,-1,-1,-1,-1],"split_conditions":[1.2E1,8E0,3.6E1,1E1,2.4304677E2,9.8E1,9E0,5E0,7E0,3.1E1,1.4E1,3E0,2.7350435E0,3E0,8.362476E1,3.3019037E2,2.1E1,1.8E1,1.6E1,3.3430775E1,1.1E1,3E0,4E1,2.4365914E0,2.3E1,4.10032E1,6E0,3.7E1,1.7811873E2,-3.534685E-1,-4.532219E-2,-2.4532051E-1,3.162255E-1,-6.5842026E-1,-4.3412575E-1,-4.0900522E-1,3.788884E-2,8.620891E-2,-2.7493116E-1,-2.0032182E-1,1.3879185E0,1.8467568E0,-3.3882175E-2,1.3774574E0,-3.799917E-1,2.1383213E-1,5.0424916E-1,-9.5764354E-2,5.6265754E-1,1.1960233E0,3.8079343E0,6.263935E-1,-7.2412646E-1,1.9778897E0,7.809741E-1],"split_indices":[4,4,4,5,3,5,6,4,4,6,6,5,0,6,3,3,6,6,6,3,4,6,5,0,4,3,5,5,3,0,0,0,0,0,0,0,0,0,0,0,0,0,0,0,0,0,0,0,0,0,0,0,0,0,0],"split_type":[0,0,0,0,0,0,0,0,0,0,0,0,0,0,0,0,0,0,0,0,0,0,0,0,0,0,0,0,0,0,0,0,0,0,0,0,0,0,0,0,0,0,0,0,0,0,0,0,0,0,0,0,0,0,0],"sum_hessian":[1.938E3,1.197E3,7.41E2,9.49E2,2.48E2,6.35E2,1.06E2,8.7E2,7.9E1,1.81E2,6.7E1,6.33E2,2E0,1.1E1,9.5E1,5.8E2,2.9E2,5.8E1,2.1E1,1.62E2,1.9E1,4.8E1,1.9E1,1E0,6.32E2,2E0,9E0,2.3E1,7.2E1,5.63E2,1.7E1,2.86E2,4E0,3.5E1,2.3E1,1.5E1,6E0,1.4E1,1.48E2,1.4E1,5E0,2E0,4.6E1,1.4E1,5E0,4.84E2,1.48E2,1E0,1E0,2E0,7E0,1.4E1,9E0,2.9E1,4.3E1],"tree_param":{"num_deleted":"0","num_feature":"7","num_nodes":"55","size_leaf_vector":"1"}},{"base_weights":[4.3008822E-1,-6.125329E-1,1.6108934E1,-2.7164567E0,2.4828074E0,3.688499E1,1.3483268E1,4.5997402E-1,-2.7980304E0,9.0257037E-1,3.9731035E0,1.0542014E2,1.4840405E1,5.0158543E1,1.1972095E1,-1.2301964E0,2.3047287E0,-3.0792966E0,-2.1226797E0,3.009517E0,7.369621E-1,7.187112E0,2.5979874E0,3.2922298E-1,1.5483798E1,-6.6092044E-1,2.786833E1,8.322108E0,1.1397338E1,1.3185969E1,3.053346E0,-4.7013E-2,-7.154017E-1,-2.934676E-1,-5.5512494E-1,-5.089309E-1,-1.9672726E-1,1.2465448E0,6.0273416E-2,1.1407138E0,4.718507E-1,2.3286091E-1,2.5527074E0,-3.9982277E-1,4.009129E-1,3.4219944E0,-1.9448642E-1,1.5225315E-1,1.5573477E0,1.3651127E0,-5.319132E-1,-3.4704027E-1,1.2330078E0],"categories":[],"categories_nodes":[],"categories_segments":[],"categories_sizes":[],"default_left":[0,0,0,0,0,0,0,0,0,0,0,0,0,0,0,0,0,0,0,0,0,0,0,0,0,0,0,0,0,0,0,0,0,0,0,0,0,0,0,0,0,0,0,0,0,0,0,0,0,0,0,0,0],"id":10,"left_children":[1,3,5,7,9,11,13,15,17,19,21,23,25,27,29,31,-1,33,35,-1,37,39,41,-1,-1,43,45,-1,47,49,51,-1,-1,-1,-1,-1,-1,-1,-1,-1,-1,-1,-1,-1,-1,-1,-1,-1,-1,-1,-1,-1,-1],"loss_changes":[3.1723232E4,1.1859238E4,6.103342E3,2.82167E2,1.7320645E3,1.8076299E4,5.4405703E3,1.0972921E3,1.9424414E2,1.7134194E3,1.6563696E3,1.4631059E4,2.2398699E3,4.177676E3,1.1073203E3,1.182041E2,0E0,2.4968555E2,1.3475293E2,0E0,5.560825E2,1.1233618E3,1.5897091E3,0E0,0E0,1.0954175E2,1.2027246E3,0E0,1.0000452E2,8.7313574E2,8.9005725E2,0E0,0E0,0E0,0E0,0E0,0E0,0E0,0E0,0E0,0E0,0E0,0E0,0E0,0E0,0E0,0E0,0E0,0E0,0E0,0E0,0E0,0E0],"parents":[2147483647,0,0,1,1,2,2,3,3,4,4,5,5,6,6,7,7,8,8,9,9,10,10,11,11,12,12,13,13,14,14,15,15,17,17,18,18,20,20,21,21,22,22,25,25,26,26,28,28,29,29,30,30],"right_children":[2,4,6,8,10,12,14,16,18,20,22,24,26,28,30,32,-1,34,36,-1,38,40,42,-1,-1,44,46,-1,48,50,52,-1,-1,-1,-1,-1,-1,-1,-1,-1,-1,-1,-1,-1,-1,-1,-1,-1,-1,-1,-1,-1,-1],"split_conditions":[3.3E1,1E1,3.5E1,9.069501E0,1.6E1,1.6E1,9.161168E0,9E0,6E0,7.7590833E0,1.5E1,1.1754918E1,2.6E1,5E1,1.3000001E0,2.6E1,2.3047287E0,1E1,1.0554916E1,3.009517E0,3E0,1.4242416E1,1.06E2,3.2922298E-1,1.5483798E1,2.4E1,4.2E1,8.322108E0,1E-1,8.3E1,5.6E1,-4.7013E-2,-7.154017E-1,-2.934676E-1,-5.5512494E-1,-5.089309E-1,-1.9672726E-1,1.2465448E0,6.0273416E-2,1.1407138E0,4.718507E-1,2.3286091E-1,2.5527074E0,-3.9982277E-1,4.009129E-1,3.4219944E0,-1.9448642E-1,1.5225315E-1,1.5573477E0,1.3651127E0,-5.319132E-1,-3.4704027E-1,1.2330078E0],"split_indices":[4,4,4,0,4,5,0,4,4,0,5,0,6,4,1,5,0,5,0,0,5,0,5,0,0,5,6,0,1,5,4,0,0,0,0,0,0,0,0,0,0,0,0,0,0,0,0,0,0,0,0,0,0],"split_type":[0,0,0,0,0,0,0,0,0,0,0,0,0,0,0,0,0,0,0,0,0,0,0,0,0,0,0,0,0,0,0,0,0,0,0,0,0,0,0,0,0,0,0,0,0,0,0,0,0,0,0,0,0],"sum_hessian":[1.939E3,1.819E3,1.2E2,1.083E3,7.36E2,1.2E1,1.08E2,2.7E1,1.056E3,3.58E2,3.78E2,2E0,1E1,3E0,1.05E2,2.6E1,1E0,7.43E2,3.13E2,1E0,3.57E2,1.12E2,2.66E2,1E0,1E0,5E0,5E0,1E0,2E0,9.2E1,1.3E1,2.4E1,2E0,7.04E2,3.9E1,1.4E1,2.99E2,3E0,3.54E2,4E1,7.2E1,2.64E2,2E0,3E0,2E0,4E0,1E0,1E0,1E0,9E1,2E0,8E0,5E0],"tree_param":{"num_deleted":"0","num_feature":"7","num_nodes":"53","size_leaf_vector":"1"}},{"base_weights":[8.1480294E-2,-2.17406E0,1.9397819E0,1.0751152E0,-2.543337E0,3.3834267E-1,3.3747535E0,4.4471407E-1,2.859041E0,-2.8106315E0,-1.9590149E0,5.5653315E0,-3.1578612E-1,1.894232E1,2.8524866E0,2.7335129E0,-2.5597334E0,-3.3860705E0,-2.4883788E0,-5.2686024E-2,-2.1155844E0,6.7077055E0,-2.1273773E0,-7.628419E-1,2.1508367E0,6.832653E1,4.5103755E0,5.912982E0,1.855167E0,1.3937546E-1,3.4860713E0,-3.002474E-1,3.753977E-1,1.4674324E-1,-3.4983364E-1,-1.3172267E-1,-2.5867382E-1,-1.3782479E-1,1.2566494E0,6.160335E-1,-2.1783507E-1,-2.5609973E-1,7.8191715E-1,-2.8657055E-1,1.5204601E-1,-4.0614024E-1,-4.6850417E-2,4.5042656E-2,1.9930073E0,1.4709607E1,-6.962008E-1,1.2380413E0,-2.111917E-1,1.687785E-2,9.1547817E-1,1.3959597E-2,3.178217E-1],"categories":[],"categories_nodes":[],"categories_segments":[],"categories_sizes":[],"default_left":[0,0,0,0,0,0,0,0,0,0,0,0,0,0,0,0,0,0,0,0,0,0,0,0,0,0,0,0,0,0,0,0,0,0,0,0,0,0,0,0,0,0,0,0,0,0,0,0,0,0,0,0,0,0,0,0,0],"id":11,"left_children":[1,3,5,7,9,11,13,15,-1,17,19,21,23,25,27,29,31,33,35,37,39,41,43,45,47,49,51,53,55,-1,-1,-1,-1,-1,-1,-1,-1,-1,-1,-1,-1,-1,-1,-1,-1,-1,-1,-1,-1,-1,-1,-1,-1,-1,-1,-1,-1],"loss_changes":[8.1189116E3,1.0525991E3,2.4393557E3,1.5483961E3,1.17256836E2,1.7215768E3,4.4990054E3,6.190124E2,0E0,9.115332E1,7.4506775E1,5.0639502E2,4.9565842E2,1.25206045E4,1.6464253E3,2.1465898E3,1.2028932E2,1.0866138E2,3.667993E1,3.518698E2,1.3341211E2,5.248154E2,2.5903603E1,3.6703574E2,2.0770308E3,2.474586E4,8.079116E2,2.4751216E3,9.324386E2,0E0,0E0,0E0,0E0,0E0,0E0,0E0,0E0,0E0,0E0,0E0,0E0,0E0,0E0,0E0,0E0,0E0,0E0,0E0,0E0,0E0,0E0,0E0,0E0,0E0,0E0,0E0,0E0],"parents":[2147483647,0,0,1,1,2,2,3,3,4,4,5,5,6,6,7,7,9,9,10,10,11,11,12,12,13,13,14,14,15,15,16,16,17,17,18,18,19,19,20,20,21,21,22,22,23,23,24,24,25,25,26,26,27,27,28,28],"right_children":[2,4,6,8,10,12,14,16,-1,18,20,22,24,26,28,30,32,34,36,38,40,42,44,46,48,50,52,54,56,-1,-1,-1,-1,-1,-1,-1,-1,-1,-1,-1,-1,-1,-1,-1,-1,-1,-1,-1,-1,-1,-1,-1,-1,-1,-1,-1,-1],"split_conditions":[7E0,1.199867E1,1.3227661E2,3.479759E2,5E0,1.6071491E1,1.3575612E2,2.1068459E1,2.859041E0,1.7494501E1,1.5652835E1,1.6946583E1,2.751742E1,1.2E1,2.0211363E1,2.0598795E1,3.233542E2,1.1298495E1,1.8229918E1,1.555075E1,1.9182497E0,9.069501E0,2.0707003E1,1.199867E1,3.6E1,2.3408997E1,1.3436212E2,2.1122748E2,1.4E1,1.3937546E-1,3.4860713E0,-3.002474E-1,3.753977E-1,1.4674324E-1,-3.4983364E-1,-1.3172267E-1,-2.5867382E-1,-1.3782479E-1,1.2566494E0,6.160335E-1,-2.1783507E-1,-2.5609973E-1,7.8191715E-1,-2.8657055E-1,1.5204601E-1,-4.0614024E-1,-4.6850417E-2,4.5042656E-2,1.9930073E0,1.4709607E1,-6.962008E-1,1.2380413E0,-2.111917E-1,1.687785E-2,9.1547817E-1,1.3959597E-2,3.178217E-1],"split_indices":[6,0,3,3,6,2,3,2,0,0,0,0,0,6,2,2,3,2,0,0,3,0,0,0,6,2,3,3,6,0,0,0,0,0,0,0,0,0,0,0,0,0,0,0,0,0,0,0,0,0,0,0,0,0,0,0,0],"split_type":[0,0,0,0,0,0,0,0,0,0,0,0,0,0,0,0,0,0,0,0,0,0,0,0,0,0,0,0,0,0,0,0,0,0,0,0,0,0,0,0,0,0,0,0,0,0,0,0,0,0,0,0,0,0,0,0,0],"sum_hessian":[1.935E3,8.74E2,1.061E3,8.9E1,7.85E2,5.02E2,5.59E2,8.8E1,1E0,5.36E2,2.49E2,5.5E1,4.47E2,1.7E1,5.42E2,5E1,3.8E1,1.89E2,3.47E2,1.9E1,2.3E2,4.8E1,7E0,3.79E2,6.8E1,3E0,1.4E1,1.32E2,4.1E2,4.9E1,1E0,3.6E1,2E0,4E0,1.85E2,2.8E1,3.19E2,1.8E1,1E0,1E0,2.29E2,5E0,4.3E1,6E0,1E0,3E1,3.49E2,6.3E1,5E0,1E0,2E0,6E0,8E0,4.8E1,8.4E1,1.79E2,2.31E2],"tree_param":{"num_deleted":"0","num_feature":"7","num_nodes":"57","size_leaf_vector":"1"}},{"base_weights":[-1.0205531E-2,-1.8962257E0,3.6624365E0,-2.3910096E0,2.0877393E-1,2.4515674E0,9.361614E0,-2.216183E0,-4.119627E0,2.716089E0,-1.1197653E-2,2.3564925E0,2.7276313E0,2.0597946E1,6.2065063E0,-2.5475411E0,-1.62484E0,-5.8318963E0,-2.8230126E0,-7.203446E-1,6.578426E0,4.3338695E0,1.1340566E0,1.0255481E1,9.30242E1,4.7615705E0,1.7578821E1,-1.2961839E-1,-2.6620373E-1,3.6991352E-1,-1.7140137E-1,-6.3037556E-1,-3.506187E-1,-2.104497E-1,-5.9177345E-1,-9.4265446E-2,6.2741673E-1,9.450256E-1,-3.612109E-1,7.300398E-1,2.6878622E-1,-4.496532E-2,3.0726406E-1,-2.6823875E-1,1.7334503E0,1.3974128E1,-2.0497322E-2,2.5226247E-1,1.2170513E0,2.8737142E0,8.691379E-1],"categories":[],"categories_nodes":[],"categories_segments":[],"categories_sizes":[],"default_left":[0,0,0,0,0,0,0,0,0,0,0,0,0,0,0,0,0,0,0,0,0,0,0,0,0,0,0,0,0,0,0,0,0,0,0,0,0,0,0,0,0,0,0,0,0,0,0,0,0,0,0],"id":12,"left_children":[1,3,5,7,9,11,13,15,17,-1,19,21,-1,23,25,27,29,31,33,35,37,39,41,43,45,47,49,-1,-1,-1,-1,-1,-1,-1,-1,-1,-1,-1,-1,-1,-1,-1,-1,-1,-1,-1,-1,-1,-1,-1,-1],"loss_changes":[1.3555524E4,1.3471841E3,4.559285E3,3.0728223E2,1.464693E3,1.2314792E3,3.9845723E3,1.8259766E2,1.9445105E2,0E0,1.1542994E3,1.3197202E3,0E0,1.7772643E4,1.4280657E3,8.380469E1,1.7013177E2,2.179419E1,1.1206799E2,3.5266797E2,7.3650696E2,1.0009094E3,1.0452343E3,2.1530095E3,1.3094826E4,1.3461202E3,7.419241E2,0E0,0E0,0E0,0E0,0E0,0E0,0E0,0E0,0E0,0E0,0E0,0E0,0E0,0E0,0E0,0E0,0E0,0E0,0E0,0E0,0E0,0E0,0E0,0E0],"parents":[2147483647,0,0,1,1,2,2,3,3,4,4,5,5,6,6,7,7,8,8,10,10,11,11,13,13,14,14,15,15,16,16,17,17,18,18,19,19,20,20,21,21,22,22,23,23,24,24,25,25,26,26],"right_children":[2,4,6,8,10,12,14,16,18,-1,20,22,-1,24,26,28,30,32,34,36,38,40,42,44,46,48,50,-1,-1,-1,-1,-1,-1,-1,-1,-1,-1,-1,-1,-1,-1,-1,-1,-1,-1,-1,-1,-1,-1,-1,-1],"split_conditions":[1.3E1,9E0,3.4E1,1E1,7.7590833E0,1.06E2,1.2E1,5E0,6E0,2.716089E0,2.6E1,1.5E1,2.7276313E0,1.8417418E1,2.74195E1,1.1002834E1,8.904918E0,1.7982002E1,2.6E1,3.4947928E2,4.8E1,1.4575749E1,2.16445E1,4.3E1,2.16445E1,3.8E1,3.4E1,-1.2961839E-1,-2.6620373E-1,3.6991352E-1,-1.7140137E-1,-6.3037556E-1,-3.506187E-1,-2.104497E-1,-5.9177345E-1,-9.4265446E-2,6.2741673E-1,9.450256E-1,-3.612109E-1,7.300398E-1,2.6878622E-1,-4.496532E-2,3.0726406E-1,-2.6823875E-1,1.7334503E0,1.3974128E1,-2.0497322E-2,2.5226247E-1,1.2170513E0,2.8737142E0,8.691379E-1],"split_indices":[4,4,4,5,0,5,6,4,4,0,5,5,0,0,0,0,0,0,5,3,6,0,0,4,0,6,6,0,0,0,0,0,0,0,0,0,0,0,0,0,0,0,0,0,0,0,0,0,0,0,0],"split_type":[0,0,0,0,0,0,0,0,0,0,0,0,0,0,0,0,0,0,0,0,0,0,0,0,0,0,0,0,0,0,0,0,0,0,0,0,0,0,0,0,0,0,0,0,0,0,0,0,0,0,0],"sum_hessian":[1.955E3,1.292E3,6.63E2,1.046E3,2.46E2,5.48E2,1.15E2,9.52E2,9.4E1,1E0,2.45E2,5.47E2,1E0,2.4E1,9.1E1,6.08E2,3.44E2,3.9E1,5.5E1,2.22E2,2.3E1,2.08E2,3.39E2,2.2E1,2E0,8.2E1,9E0,5.2E1,5.56E2,5E0,3.39E2,3.1E1,8E0,4.6E1,9E0,2.16E2,6E0,1.8E1,5E0,7.3E1,1.35E2,1.87E2,1.52E2,8E0,1.4E1,1E0,1E0,6.4E1,1.8E1,3E0,6E0],"tree_param":{"num_deleted":"0","num_feature":"7","num_nodes":"51","size_leaf_vector":"1"}},{"base_weights":[-2.991711E-2,-6.947121E-1,9.7401495E0,-2.2473555E0,1.6628546E0,2.1891537E1,6.785507E0,-2.096734E0,-4.236887E0,6.758832E0,1.1797566E0,8.6815384E1,1.2043216E1,1.3786429E1,3.9502063E0,9.403468E0,-2.128194E0,-2.820038E-1,-4.44973E0,1.0277575E1,2.5456293E0,1.1038268E0,2.59125E0,-2.5311396E-1,1.3275421E1,3.4362495E1,3.4573991E0,3.8608105E0,1.9637596E1,2.2425728E0,1.4654804E1,1.2221488E0,1.8837146E-1,-2.3727882E-1,-8.680268E-2,-3.3269623E-1,2.8569558E-1,-5.278606E-1,-3.3989903E-1,5.782683E-1,1.62858E0,1.0423445E0,-2.5638127E-1,-2.2018568E-3,2.416166E-1,1.6109581E0,4.724555E0,-1.1524429E-1,1.8727497E0,8.651719E-1,-2.372051E-1,2.6230867E0,-2.751079E-1,3.7491345E-1,-7.54816E-1,2.034076E0,-5.3926754E-1],"categories":[],"categories_nodes":[],"categories_segments":[],"categories_sizes":[],"default_left":[0,0,0,0,0,0,0,0,0,0,0,0,0,0,0,0,0,0,0,0,0,0,0,0,0,0,0,0,0,0,0,0,0,0,0,0,0,0,0,0,0,0,0,0,0,0,0,0,0,0,0,0,0,0,0,0,0],"id":13,"left_children":[1,3,5,7,9,11,13,15,17,19,21,23,25,27,29,31,33,35,37,39,41,43,-1,-1,-1,45,47,49,51,53,55,-1,-1,-1,-1,-1,-1,-1,-1,-1,-1,-1,-1,-1,-1,-1,-1,-1,-1,-1,-1,-1,-1,-1,-1,-1,-1],"loss_changes":[1.2743641E4,6.728003E3,4.339329E3,3.23146E2,1.7891815E3,1.4299846E4,1.9702119E3,3.933872E2,6.356128E1,9.0782324E2,1.2258707E3,1.2649439E4,4.097038E3,1.6084004E3,1.3198207E3,4.055066E1,3.154165E2,5.729499E1,4.563611E1,8.240393E2,1.2342607E3,9.855398E2,0E0,0E0,0E0,6.498135E2,1.2182589E3,3.788551E2,2.7292256E3,9.870715E2,1.2495818E3,0E0,0E0,0E0,0E0,0E0,0E0,0E0,0E0,0E0,0E0,0E0,0E0,0E0,0E0,0E0,0E0,0E0,0E0,0E0,0E0,0E0,0E0,0E0,0E0,0E0,0E0],"parents":[2147483647,0,0,1,1,2,2,3,3,4,4,5,5,6,6,7,7,8,8,9,9,10,10,11,11,12,12,13,13,14,14,15,15,16,16,17,17,18,18,19,19,20,20,21,21,25,25,26,26,27,27,28,28,29,29,30,30],"right_children":[2,4,6,8,10,12,14,16,18,20,22,24,26,28,30,32,34,36,38,40,42,44,-1,-1,-1,46,48,50,52,54,56,-1,-1,-1,-1,-1,-1,-1,-1,-1,-1,-1,-1,-1,-1,-1,-1,-1,-1,-1,-1,-1,-1,-1,-1,-1,-1],"split_conditions":[3.3E1,1E1,1.2E1,1.3E1,1.5137133E1,3.5E1,1.8079027E1,9.793059E0,1.3276144E1,1.3E1,1.06E2,2.2380884E1,3.512129E1,1.0508785E2,6.6E1,5.984643E1,7E0,1.2287555E1,1.7E1,1.4154915E1,1.4E1,1.7E1,2.59125E0,-2.5311396E-1,1.3275421E1,1.5E1,1.1E1,1.5496736E1,2.5498845E2,6.4E1,3.5756172E1,1.2221488E0,1.8837146E-1,-2.3727882E-1,-8.680268E-2,-3.3269623E-1,2.8569558E-1,-5.278606E-1,-3.3989903E-1,5.782683E-1,1.62858E0,1.0423445E0,-2.5638127E-1,-2.2018568E-3,2.416166E-1,1.6109581E0,4.724555E0,-1.1524429E-1,1.8727497E0,8.651719E-1,-2.372051E-1,2.6230867E0,-2.751079E-1,3.7491345E-1,-7.54816E-1,2.034076E0,-5.3926754E-1],"split_indices":[4,4,6,5,2,4,2,2,2,5,5,2,3,3,4,3,4,2,6,2,4,4,0,0,0,5,6,2,3,5,2,0,0,0,0,0,0,0,0,0,0,0,0,0,0,0,0,0,0,0,0,0,0,0,0,0,0],"split_type":[0,0,0,0,0,0,0,0,0,0,0,0,0,0,0,0,0,0,0,0,0,0,0,0,0,0,0,0,0,0,0,0,0,0,0,0,0,0,0,0,0,0,0,0,0,0,0,0,0,0,0,0,0,0,0,0,0],"sum_hessian":[1.96E3,1.836E3,1.24E2,1.107E3,7.29E2,2.3E1,1.01E2,1.031E3,7.6E1,6.2E1,6.67E2,2E0,2.1E1,2.8E1,7.3E1,2E0,1.029E3,4E0,7.2E1,3.3E1,2.9E1,6.66E2,1E0,1E0,1E0,5E0,1.6E1,1.1E1,1.7E1,6.4E1,9E0,1E0,1E0,8.61E2,1.68E2,2E0,2E0,3.8E1,3.4E1,2E1,1.3E1,1.1E1,1.8E1,3.59E2,3.07E2,3E0,2E0,1.3E1,3E0,6E0,5E0,1.3E1,4E0,5.6E1,8E0,7E0,2E0],"tree_param":{"num_deleted":"0","num_feature":"7","num_nodes":"57","size_leaf_vector":"1"}},{"base_weights":[5.7585098E-2,-1.2471358E0,1.8898798E0,5.9026966E0,-1.4183843E0,6.482898E-2,3.434007E0,2.1699266E0,2.6823642E0,1.1370085E0,-1.6160462E0,1.2195616E1,-1.9905995E-1,1.1966242E1,2.7613413E0,5.1798997E0,-1.858214E0,2.6646027E-1,1.782845E1,3.006833E-1,-1.7674696E0,-9.055993E-2,1.6713621E1,-6.43901E-1,3.5700839E0,6.2169445E1,4.6290336E0,3.6696076E0,8.772594E-1,3.1217644E-1,1.596783E0,3.7802154E-1,-2.8000784E-1,1.3212241E0,-8.012267E-2,3.7181778E0,-1.01658724E-1,4.664174E-1,-1.6442142E-1,-2.1752925E-1,-1.1458223E-1,1.9897804E0,3.963547E-2,2.739381E-1,-1.01639904E-1,1.859456E0,8.137035E-2,-1.1850758E-1,1.261165E1,3.3073914E0,2.4319339E-1,1.4583486E0,3.1634566E-1,-1.5120715E-1,3.5515496E-1],"categories":[],"categories_nodes":[],"categories_segments":[],"categories_sizes":[],"default_left":[0,0,0,0,0,0,0,0,0,0,0,0,0,0,0,0,0,0,0,0,0,0,0,0,0,0,0,0,0,0,0,0,0,0,0,0,0,0,0,0,0,0,0,0,0,0,0,0,0,0,0,0,0,0,0],"id":14,"left_children":[1,3,5,7,9,11,13,15,-1,17,19,21,23,25,27,29,31,33,35,37,39,-1,41,43,45,47,49,51,53,-1,-1,-1,-1,-1,-1,-1,-1,-1,-1,-1,-1,-1,-1,-1,-1,-1,-1,-1,-1,-1,-1,-1,-1,-1,-1],"loss_changes":[4.690388E3,1.4115326E3,2.299356E3,2.0503076E3,5.6755396E2,1.2028702E3,2.5037456E3,3.006156E2,0E0,1.1722366E3,3.0237842E2,4.8866675E2,6.193133E2,1.149946E4,7.0010376E2,2.6099454E2,6.90019E1,1.0887052E3,1.4966553E3,6.611326E2,2.4190283E2,0E0,3.0385632E2,4.18672E2,1.5999829E3,1.6354798E4,1.7319573E3,1.484033E3,8.679883E2,0E0,0E0,0E0,0E0,0E0,0E0,0E0,0E0,0E0,0E0,0E0,0E0,0E0,0E0,0E0,0E0,0E0,0E0,0E0,0E0,0E0,0E0,0E0,0E0,0E0,0E0],"parents":[2147483647,0,0,1,1,2,2,3,3,4,4,5,5,6,6,7,7,9,9,10,10,11,11,12,12,13,13,14,14,15,15,16,16,17,17,18,18,19,19,20,20,22,22,23,23,24,24,25,25,26,26,27,27,28,28],"right_children":[2,4,6,8,10,12,14,16,-1,18,20,22,24,26,28,30,32,34,36,38,40,-1,42,44,46,48,50,52,54,-1,-1,-1,-1,-1,-1,-1,-1,-1,-1,-1,-1,-1,-1,-1,-1,-1,-1,-1,-1,-1,-1,-1,-1,-1,-1],"split_conditions":[1.1E1,1.2074766E1,1.2813362E2,3.3879367E2,3.512129E1,1.2074766E1,1.3575612E2,1.199867E1,2.6823642E0,3.3430775E1,1.5986593E1,6.6222946E1,4.1E1,1.2E1,1E-1,1.1901798E1,3E0,1.0319501E1,1.5652835E1,1.2202835E1,2.2907003E1,-9.055993E-2,1E-1,2.34986E1,4.5E1,2.0336166E1,1.0739832E1,9.161168E0,1.5234084E1,3.1217644E-1,1.596783E0,3.7802154E-1,-2.8000784E-1,1.3212241E0,-8.012267E-2,3.7181778E0,-1.01658724E-1,4.664174E-1,-1.6442142E-1,-2.1752925E-1,-1.1458223E-1,1.9897804E0,3.963547E-2,2.739381E-1,-1.01639904E-1,1.859456E0,8.137035E-2,-1.1850758E-1,1.261165E1,3.3073914E0,2.4319339E-1,1.4583486E0,3.1634566E-1,-1.5120715E-1,3.5515496E-1],"split_indices":[6,2,3,3,3,2,3,0,0,3,2,3,6,6,1,2,6,0,0,0,0,0,1,3,6,0,2,0,0,0,0,0,0,0,0,0,0,0,0,0,0,0,0,0,0,0,0,0,0,0,0,0,0,0,0],"split_type":[0,0,0,0,0,0,0,0,0,0,0,0,0,0,0,0,0,0,0,0,0,0,0,0,0,0,0,0,0,0,0,0,0,0,0,0,0,0,0,0,0,0,0,0,0,0,0,0,0,0,0,0,0,0,0],"sum_hessian":[1.96E3,1.145E3,8.15E2,2.6E1,1.119E3,3.74E2,4.41E2,2.3E1,3E0,8E1,1.039E3,7E0,3.67E2,3.1E1,4.1E2,1.3E1,1E1,7.7E1,3E0,7.6E1,9.63E2,2E0,5E0,3.29E2,3.8E1,3E0,2.8E1,2.76E2,1.34E2,1.2E1,1E0,1E0,9E0,5E0,7.2E1,1E0,2E0,2.3E1,5.3E1,5.8E2,3.83E2,4E0,1E0,3.2E1,2.97E2,5E0,3.3E1,2E0,1E0,1E0,2.7E1,1.1E1,2.65E2,7.1E1,6.3E1],"tree_param":{"num_deleted":"0","num_feature":"7","num_nodes":"55","size_leaf_vector":"1"}},{"base_weights":[2.1753311E-1,-5.0495064E-1,1.0178568E1,-1.5155097E0,1.826618E0,2.0381432E1,7.5088873E0,9.182175E0,-1.6325201E0,6.5441356E0,1.3975348E0,1.1981068E1,1.1949127E1,2.9694233E1,6.1302505E0,1.5041878E0,2.2701715E1,-2.0629823E0,-9.999558E-1,1.1384646E1,1.20864E0,-5.2054453E0,1.7058771E0,1.7598793E1,1.1497828E0,4.4897375E0,7.7858353E0,2.7734613E0,1.0320551E1,5.7802343E-1,-2.3098819E-1,2.6478474E0,3.7973395E-1,-2.238593E-1,-1.5559871E-1,1.1406488E-2,-1.3098426E-1,1.6720659E-1,2.2711143E0,-2.8111038E-1,2.481408E-1,3.5929674E-1,-6.2144834E-1,5.4007755E-3,2.723075E-1,2.0323029E0,-1.8886457E-1,-3.1022194E-1,1.2105194E0,-6.740039E-1,8.982191E-1,-1.128343E-1,5.3697425E-1,1.3341813E0,-3.2469246E-1],"categories":[],"categories_nodes":[],"categories_segments":[],"categories_sizes":[],"default_left":[0,0,0,0,0,0,0,0,0,0,0,0,0,0,0,0,0,0,0,0,0,0,0,0,0,0,0,0,0,0,0,0,0,0,0,0,0,0,0,0,0,0,0,0,0,0,0,0,0,0,0,0,0,0,0],"id":15,"left_children":[1,3,5,7,9,11,13,15,17,19,21,-1,23,25,27,29,31,33,35,37,39,41,43,45,47,49,-1,51,53,-1,-1,-1,-1,-1,-1,-1,-1,-1,-1,-1,-1,-1,-1,-1,-1,-1,-1,-1,-1,-1,-1,-1,-1,-1,-1],"loss_changes":[1.4153825E4,4.3240166E3,3.469663E3,1.6172168E3,1.1142896E3,2.1205645E4,3.0906196E3,1.4190923E3,3.4293506E2,1.1742604E3,1.0472285E3,0E0,1.5660957E3,6.9341504E3,1.4061038E3,1.7644304E2,2.5643848E2,6.3558838E1,1.7793787E2,2.6022537E3,1.2464809E2,2.2652087E2,8.1982825E2,9.4088525E2,5.033773E2,3.1278656E2,0E0,5.936094E2,1.8879106E3,0E0,0E0,0E0,0E0,0E0,0E0,0E0,0E0,0E0,0E0,0E0,0E0,0E0,0E0,0E0,0E0,0E0,0E0,0E0,0E0,0E0,0E0,0E0,0E0,0E0,0E0],"parents":[2147483647,0,0,1,1,2,2,3,3,4,4,5,5,6,6,7,7,8,8,9,9,10,10,12,12,13,13,14,14,15,15,16,16,17,17,18,18,19,19,20,20,21,21,22,22,23,23,24,24,25,25,27,27,28,28],"right_children":[2,4,6,8,10,12,14,16,18,20,22,-1,24,26,28,30,32,34,36,38,40,42,44,46,48,50,-1,52,54,-1,-1,-1,-1,-1,-1,-1,-1,-1,-1,-1,-1,-1,-1,-1,-1,-1,-1,-1,-1,-1,-1,-1,-1,-1,-1],"split_conditions":[3.3E1,1.3E1,1.2E1,1.1298495E1,1.5349684E1,3.5E1,9.161168E0,9E0,6E0,1.2129914E1,1.0934083E1,1.1981068E1,2.6405453E1,1.4494192E1,2.6E1,1.199867E1,1.2E1,2.425908E1,1.9523155E1,1.1065334E1,1.2287555E1,5E0,1.7E1,1.643825E1,1.1E1,9.793059E0,7.7858353E0,4E1,3.0821552E1,5.7802343E-1,-2.3098819E-1,2.6478474E0,3.7973395E-1,-2.238593E-1,-1.5559871E-1,1.1406488E-2,-1.3098426E-1,1.6720659E-1,2.2711143E0,-2.8111038E-1,2.481408E-1,3.5929674E-1,-6.2144834E-1,5.4007755E-3,2.723075E-1,2.0323029E0,-1.8886457E-1,-3.1022194E-1,1.2105194E0,-6.740039E-1,8.982191E-1,-1.128343E-1,5.3697425E-1,1.3341813E0,-3.2469246E-1],"split_indices":[4,4,6,2,2,4,0,4,4,0,0,0,2,2,6,0,4,0,2,0,2,6,4,0,6,2,0,4,2,0,0,0,0,0,0,0,0,0,0,0,0,0,0,0,0,0,0,0,0,0,0,0,0,0,0],"split_type":[0,0,0,0,0,0,0,0,0,0,0,0,0,0,0,0,0,0,0,0,0,0,0,0,0,0,0,0,0,0,0,0,0,0,0,0,0,0,0,0,0,0,0,0,0,0,0,0,0,0,0,0,0,0,0],"sum_hessian":[1.965E3,1.833E3,1.32E2,1.279E3,5.54E2,2.6E1,1.06E2,1.3E1,1.266E3,4.5E1,5.09E2,1E0,2.5E1,5E0,1.01E2,9E0,4E0,7.52E2,5.14E2,2.3E1,2.2E1,2.2E1,4.87E2,1.6E1,9E0,4E0,1E0,5.7E1,4.4E1,4E0,5E0,3E0,1E0,5.56E2,1.96E2,1.12E2,4.02E2,1.3E1,1E1,5E0,1.7E1,2E0,2E1,1.86E2,3.01E2,1.4E1,2E0,7E0,2E0,1E0,3E0,2.3E1,3.4E1,3.6E1,8E0],"tree_param":{"num_deleted":"0","num_feature":"7","num_nodes":"55","size_leaf_vector":"1"}},{"base_weights":[6.407569E-2,-4.3109182E-1,9.451179E0,-1.6898557E0,1.2724929E0,4.899332E1,8.102993E0,-1.4764323E0,-3.2855084E0,1.1978294E0,2.0260838E1,7.396544E0,-4.7546007E-2,7.080337E0,1.7088337E1,-1.8018637E0,-9.273489E-1,-5.888548E0,-2.6976213E0,-3.3645012E0,1.4166832E0,6.0687107E-1,2.4322546E0,1.5011893E1,5.4840918E0,2.2577583E1,-1.4160175E0,-8.804073E-2,-1.882439E-1,8.633777E-1,-1.09094135E-1,-4.3267846E-1,-6.829452E-1,-1.850806E-1,-4.361723E-1,-4.7192302E-1,4.1956815E-1,3.741648E-1,9.731625E-2,-1.0006167E-1,2.4018912E0,2.3007767E-1,9.590294E-1,2.6144936E0,5.8672905E-2,-5.0097895E-1,2.8857633E-1],"categories":[],"categories_nodes":[],"categories_segments":[],"categories_sizes":[],"default_left":[0,0,0,0,0,0,0,0,0,0,0,0,0,0,0,0,0,0,0,0,0,0,0,0,0,0,0,0,0,0,0,0,0,0,0,0,0,0,0,0,0,0,0,0,0,0,0],"id":16,"left_children":[1,3,5,7,9,11,13,15,17,19,21,-1,-1,23,25,27,29,31,33,35,37,-1,-1,39,41,43,45,-1,-1,-1,-1,-1,-1,-1,-1,-1,-1,-1,-1,-1,-1,-1,-1,-1,-1,-1,-1],"loss_changes":[8.998318E3,3.945722E3,4.77409E3,3.5545044E2,1.0844008E3,3.741189E3,7.5195605E2,1.654032E2,1.7387122E2,7.835835E2,2.5326294E1,0E0,0E0,1.0191548E3,9.46145E2,4.1851196E1,5.5686383E2,2.7786865E0,1.3707355E2,3.8851227E2,7.6458057E2,0E0,0E0,2.0431833E3,9.452136E2,5.3380396E2,6.0835926E1,0E0,0E0,0E0,0E0,0E0,0E0,0E0,0E0,0E0,0E0,0E0,0E0,0E0,0E0,0E0,0E0,0E0,0E0,0E0,0E0],"parents":[2147483647,0,0,1,1,2,2,3,3,4,4,5,5,6,6,7,7,8,8,9,9,10,10,13,13,14,14,15,15,16,16,17,17,18,18,19,19,20,20,23,23,24,24,25,25,26,26],"right_children":[2,4,6,8,10,12,14,16,18,20,22,-1,-1,24,26,28,30,32,34,36,38,-1,-1,40,42,44,46,-1,-1,-1,-1,-1,-1,-1,-1,-1,-1,-1,-1,-1,-1,-1,-1,-1,-1,-1,-1],"split_conditions":[3.8E1,1E1,9.161168E0,1E1,1.06E2,5E1,2.227992E1,5E0,1.1065334E1,9.950749E0,1.0934083E1,7.396544E0,-4.7546007E-2,1E1,3.2794506E1,3E0,9.069501E0,7E0,1E-1,4E-1,1.2829918E1,6.0687107E-1,2.4322546E0,1E1,2.1E1,4.5E1,4.2E1,-8.804073E-2,-1.882439E-1,8.633777E-1,-1.09094135E-1,-4.3267846E-1,-6.829452E-1,-1.850806E-1,-4.361723E-1,-4.7192302E-1,4.1956815E-1,3.741648E-1,9.731625E-2,-1.0006167E-1,2.4018912E0,2.3007767E-1,9.590294E-1,2.6144936E0,5.8672905E-2,-5.0097895E-1,2.8857633E-1],"split_indices":[4,4,0,5,5,4,0,4,0,0,0,0,0,6,0,6,0,4,1,1,0,0,0,5,6,6,4,0,0,0,0,0,0,0,0,0,0,0,0,0,0,0,0,0,0,0,0],"split_type":[0,0,0,0,0,0,0,0,0,0,0,0,0,0,0,0,0,0,0,0,0,0,0,0,0,0,0,0,0,0,0,0,0,0,0,0,0,0,0,0,0,0,0,0,0,0,0],"sum_hessian":[1.934E3,1.838E3,9.6E1,1.057E3,7.81E2,2E0,9.4E1,9.34E2,1.23E2,7.79E2,2E0,1E0,1E0,8.6E1,8E0,5.85E2,3.49E2,2.1E1,1.02E2,3.5E1,7.44E2,1E0,1E0,1.3E1,7.3E1,6E0,2E0,4.8E1,5.37E2,5E0,3.44E2,1E1,1.1E1,6.9E1,3.3E1,3E1,5E0,1.18E2,6.26E2,5E0,8E0,4.2E1,3.1E1,5E0,1E0,1E0,1E0],"tree_param":{"num_deleted":"0","num_feature":"7","num_nodes":"47","size_leaf_vector":"1"}},{"base_weights":[2.0253333E-1,-5.1714826E-1,9.398729E0,-1.559657E0,1.0336677E0,1.7703867E1,6.594257E0,-1.4282541E0,-3.2493455E0,5.5440454E0,5.9605765E-1,1.2173028E1,5.7524612E1,3.3293396E1,5.2341604E0,-1.5788699E0,9.629632E-3,-5.40357E0,-2.641008E0,9.044126E0,1.2758168E0,-5.641142E-1,2.0590868E0,1.842268E1,5.574943E0,1.1377149E1,8.518276E-1,6.483164E0,7.0267167E0,-2.3433108E0,7.3211684E0,5.5443275E-1,-1.6007382E-1,1.3674222E0,-4.2657685E-2,-6.325419E-2,-6.455919E-1,-1.7402013E-1,-4.3168592E-1,1.360016E0,2.0627372E-1,8.2716656E-1,-2.635691E-1,-5.590629E-1,-3.6541585E-2,1.9078754E-1,2.310642E0,2.8375062E-1,3.0229204E0,-5.6617206E-1,1.0728697E0,1.2511006E-1,2.6640892E-3,-1.4592488E-3,1.2988217E0,-5.314676E-1,9.416537E-1,1.7220143E0,6.152075E-1],"categories":[],"categories_nodes":[],"categories_segments":[],"categories_sizes":[],"default_left":[0,0,0,0,0,0,0,0,0,0,0,0,0,0,0,0,0,0,0,0,0,0,0,0,0,0,0,0,0,0,0,0,0,0,0,0,0,0,0,0,0,0,0,0,0,0,0,0,0,0,0,0,0,0,0,0,0,0,0],"id":17,"left_children":[1,3,5,7,9,11,13,15,17,19,21,23,25,27,29,31,33,35,37,39,41,43,45,47,49,-1,51,53,-1,55,57,-1,-1,-1,-1,-1,-1,-1,-1,-1,-1,-1,-1,-1,-1,-1,-1,-1,-1,-1,-1,-1,-1,-1,-1,-1,-1,-1,-1],"loss_changes":[1.2857662E4,2.9149763E3,3.1673623E3,2.3470752E2,1.4276908E3,7.0082256E3,3.711272E3,2.1701624E2,8.663727E1,9.445665E2,1.1248174E3,1.2168384E3,1.2653754E4,4.5008237E3,1.646023E3,1.5015991E2,5.780491E2,7.624899E1,8.608414E1,1.085207E3,8.427311E2,3.6749838E2,8.88417E2,2.858331E3,1.0452295E3,0E0,9.550936E-1,1.6926253E2,0E0,8.537302E2,8.314595E2,0E0,0E0,0E0,0E0,0E0,0E0,0E0,0E0,0E0,0E0,0E0,0E0,0E0,0E0,0E0,0E0,0E0,0E0,0E0,0E0,0E0,0E0,0E0,0E0,0E0,0E0,0E0,0E0],"parents":[2147483647,0,0,1,1,2,2,3,3,4,4,5,5,6,6,7,7,8,8,9,9,10,10,11,11,12,12,13,13,14,14,15,15,16,16,17,17,18,18,19,19,20,20,21,21,22,22,23,23,24,24,26,26,27,27,29,29,30,30],"right_children":[2,4,6,8,10,12,14,16,18,20,22,24,26,28,30,32,34,36,38,40,42,44,46,48,50,-1,52,54,-1,56,58,-1,-1,-1,-1,-1,-1,-1,-1,-1,-1,-1,-1,-1,-1,-1,-1,-1,-1,-1,-1,-1,-1,-1,-1,-1,-1,-1,-1],"split_conditions":[3.1E1,1E1,1.2E1,1.3E1,1.5137133E1,1.8417418E1,9.161168E0,8E0,1.0854917E1,1.3E1,1.7E1,4.6E1,2.16445E1,1.4494192E1,1.9E1,9.793059E0,9.069501E0,1.5784676E1,2.9168886E1,1.2202835E1,1.4E1,9.950749E0,1.06E2,1.1465335E1,5.2E1,1.1377149E1,2.6638252E1,6.4E1,7.0267167E0,4.9E1,2.1E1,5.5443275E-1,-1.6007382E-1,1.3674222E0,-4.2657685E-2,-6.325419E-2,-6.455919E-1,-1.7402013E-1,-4.3168592E-1,1.360016E0,2.0627372E-1,8.2716656E-1,-2.635691E-1,-5.590629E-1,-3.6541585E-2,1.9078754E-1,2.310642E0,2.8375062E-1,3.0229204E0,-5.6617206E-1,1.0728697E0,1.2511006E-1,2.6640892E-3,-1.4592488E-3,1.2988217E0,-5.314676E-1,9.416537E-1,1.7220143E0,6.152075E-1],"split_indices":[4,4,6,5,2,0,0,4,0,5,4,4,0,2,5,2,0,2,2,0,4,0,5,0,4,0,0,4,0,4,5,0,0,0,0,0,0,0,0,0,0,0,0,0,0,0,0,0,0,0,0,0,0,0,0,0,0,0,0],"split_type":[0,0,0,0,0,0,0,0,0,0,0,0,0,0,0,0,0,0,0,0,0,0,0,0,0,0,0,0,0,0,0,0,0,0,0,0,0,0,0,0,0,0,0,0,0,0,0,0,0,0,0,0,0,0,0,0,0,0,0],"sum_hessian":[1.941E3,1.801E3,1.4E2,1.077E3,7.24E2,3.4E1,1.06E2,1.001E3,7.6E1,6.3E1,6.61E2,3.1E1,3E0,4E0,1.02E2,9.06E2,9.5E1,1.5E1,6.1E1,3.4E1,2.9E1,3.69E2,2.92E2,1.5E1,1.6E1,1E0,2E0,3E0,1E0,2.2E1,8E1,2E0,9.04E2,2E0,9.3E1,3E0,1.2E1,4.1E1,2E1,2E1,1.4E1,1E1,1.9E1,1.3E1,3.56E2,2.91E2,1E0,7E0,8E0,5E0,1.1E1,1E0,1E0,2E0,1E0,1.8E1,4E0,7E0,7.3E1],"tree_param":{"num_deleted":"0","num_feature":"7","num_nodes":"59","size_leaf_vector":"1"}},{"base_weights":[2.819193E-1,-9.3003744E-1,1.4242064E0,6.189443E0,-1.0967382E0,6.0429187E0,1.2281206E0,2.535751E0,2.199712E0,3.6372355E-1,-1.1815029E0,3.5688407E0,1.2465964E1,8.9445007E-1,4.232254E0,-6.984963E-3,1.6099339E0,9.5816145E0,-1.0469061E0,-1.4718896E0,-6.583777E-1,-1.617485E0,7.9350786E0,1.7684593E1,-1.087786E0,7.261631E-1,6.165478E0,7.1014295E0,3.0591878E-1,-1.4765848E-1,3.8153717E-1,3.6790717E-2,1.6399918E0,-1.8740134E-1,8.106224E-1,-7.577525E-1,-1.4368652E-1,4.487219E-1,-7.2183E-2,2.555233E-1,-4.6832117E-1,2.3897992E-1,1.3874794E0,2.0634773E0,-1.4833318E-1,-1.584301E-1,-3.9418064E-2,-4.2597553E-1,8.6980544E-2,2.4385793E0,3.7324217E-1,1.9277743E0,4.3596306E-1,-2.3111324E-1,1.6969848E-1],"categories":[],"categories_nodes":[],"categories_segments":[],"categories_sizes":[],"default_left":[0,0,0,0,0,0,0,0,0,0,0,0,0,0,0,0,0,0,0,0,0,0,0,0,0,0,0,0,0,0,0,0,0,0,0,0,0,0,0,0,0,0,0,0,0,0,0,0,0,0,0,0,0,0,0],"id":18,"left_children":[1,3,5,7,9,11,13,15,-1,17,19,21,23,25,27,29,-1,31,33,35,37,39,41,43,45,47,49,51,53,-1,-1,-1,-1,-1,-1,-1,-1,-1,-1,-1,-1,-1,-1,-1,-1,-1,-1,-1,-1,-1,-1,-1,-1,-1,-1],"loss_changes":[2.724444E3,1.1402042E3,9.1001587E2,1.2148613E3,1.1605493E2,6.0704663E2,9.715408E2,6.5539636E2,0E0,6.861886E2,1.3316626E2,7.1482166E2,7.9728906E2,7.7346173E2,1.090566E3,1.0112841E2,0E0,4.3371936E2,3.634397E2,1.10362915E2,1.0673941E2,2.0385287E2,5.267776E2,4.8299878E2,7.530408E-1,6.131821E2,1.1059203E3,1.7855164E3,1.5682259E2,0E0,0E0,0E0,0E0,0E0,0E0,0E0,0E0,0E0,0E0,0E0,0E0,0E0,0E0,0E0,0E0,0E0,0E0,0E0,0E0,0E0,0E0,0E0,0E0,0E0,0E0],"parents":[2147483647,0,0,1,1,2,2,3,3,4,4,5,5,6,6,7,7,9,9,10,10,11,11,12,12,13,13,14,14,15,15,17,17,18,18,19,19,20,20,21,21,22,22,23,23,24,24,25,25,26,26,27,27,28,28],"right_children":[2,4,6,8,10,12,14,16,-1,18,20,22,24,26,28,30,-1,32,34,36,38,40,42,44,46,48,50,52,54,-1,-1,-1,-1,-1,-1,-1,-1,-1,-1,-1,-1,-1,-1,-1,-1,-1,-1,-1,-1,-1,-1,-1,-1,-1,-1],"split_conditions":[8E0,1.2287555E1,1.3276144E1,3.3879367E2,1.1142417E1,2.5E1,3.0115924E2,5E0,2.199712E0,3.3430775E1,2.3690336E1,1.1901798E1,4.6E1,3.1152832E1,1.8584082E1,1.9336351E2,1.6099339E0,9.161168E0,1.0854917E1,1.2522619E1,2.3769506E1,1.0739832E1,2.1402565E2,1.2522619E1,1.0554916E1,9.069501E0,2.1068459E1,1.9829433E1,2.2086521E1,-1.4765848E-1,3.8153717E-1,3.6790717E-2,1.6399918E0,-1.8740134E-1,8.106224E-1,-7.577525E-1,-1.4368652E-1,4.487219E-1,-7.2183E-2,2.555233E-1,-4.6832117E-1,2.3897992E-1,1.3874794E0,2.0634773E0,-1.4833318E-1,-1.584301E-1,-3.9418064E-2,-4.2597553E-1,8.6980544E-2,2.4385793E0,3.7324217E-1,1.9277743E0,4.3596306E-1,-2.3111324E-1,1.6969848E-1],"split_indices":[6,2,2,3,0,6,3,6,0,3,0,2,6,0,0,3,0,0,0,2,0,2,3,2,0,0,2,2,2,0,0,0,0,0,0,0,0,0,0,0,0,0,0,0,0,0,0,0,0,0,0,0,0,0,0],"split_type":[0,0,0,0,0,0,0,0,0,0,0,0,0,0,0,0,0,0,0,0,0,0,0,0,0,0,0,0,0,0,0,0,0,0,0,0,0,0,0,0,0,0,0,0,0,0,0,0,0,0,0,0,0,0,0],"sum_hessian":[1.966E3,9.54E2,1.012E3,2.1E1,9.33E2,4E1,9.72E2,1.8E1,3E0,5.1E1,8.82E2,3E1,1E1,8.76E2,9.6E1,1.6E1,2E0,6E0,4.5E1,5.66E2,3.16E2,1.4E1,1.6E1,7E0,3E0,8.5E2,2.6E1,5.5E1,4.1E1,1.2E1,4E0,3E0,3E0,4.2E1,3E0,2E0,5.64E2,3E0,3.13E2,6E0,8E0,9E0,7E0,6E0,1E0,1E0,2E0,2.3E1,8.27E2,2E0,2.4E1,9E0,4.6E1,1.4E1,2.7E1],"tree_param":{"num_deleted":"0","num_feature":"7","num_nodes":"55","size_leaf_vector":"1"}},{"base_weights":[2.972774E-2,-7.3289275E-1,1.1325277E0,-8.440217E-1,4.5345945E0,-6.547251E-1,2.222054E0,-7.822126E-1,-7.6945987E0,1.1562211E1,-1.3110037E0,-8.1333643E-1,8.961179E0,2.4324293E0,-4.241234E0,-8.3561903E-1,9.290654E0,-3.6721165E0,-1.0982658E0,2.045198E1,3.5606303E0,-1.7069088E0,1.917882E-1,-1.3122942E0,2.3584545E0,1.6982226E-1,1.0352362E0,-5.053513E-1,2.967813E0,-5.3598485E0,6.2689936E-1,6.3126475E-2,-1.04132764E-1,2.5230005E0,1.0567834E-1,-9.314127E-2,-4.0339747E-1,2.7557483E0,-3.9850098E-1,7.853568E-1,2.727415E-2,-2.3473804E-1,-5.684621E-2,-1.06560804E-1,-7.348221E-1,1.0399586E-1,8.614012E-1,-1.875997E-1,5.6007475E-1,-7.876275E-1,3.1772754E-1,4.264705E-1,-6.351938E-1],"categories":[],"categories_nodes":[],"categories_segments":[],"categories_sizes":[],"default_left":[0,0,0,0,0,0,0,0,0,0,0,0,0,0,0,0,0,0,0,0,0,0,0,0,0,0,0,0,0,0,0,0,0,0,0,0,0,0,0,0,0,0,0,0,0,0,0,0,0,0,0,0,0],"id":19,"left_children":[1,3,5,7,9,11,13,15,17,19,21,23,25,27,29,31,33,35,-1,37,39,41,-1,43,45,-1,-1,47,49,51,-1,-1,-1,-1,-1,-1,-1,-1,-1,-1,-1,-1,-1,-1,-1,-1,-1,-1,-1,-1,-1,-1,-1],"loss_changes":[1.641656E3,6.793444E2,1.5553676E3,4.728781E2,1.00109314E3,4.6942154E2,6.8473584E2,6.1135E2,9.193201E1,7.096323E2,2.117031E1,4.7628937E2,3.293988E1,7.580359E2,2.2171115E2,3.377126E2,7.6079254E2,2.193184E0,0E0,9.7800195E2,9.666091E1,8.144459E0,0E0,3.7781552E2,3.2920667E2,0E0,0E0,6.382043E2,9.4949585E2,1.7031549E2,0E0,0E0,0E0,0E0,0E0,0E0,0E0,0E0,0E0,0E0,0E0,0E0,0E0,0E0,0E0,0E0,0E0,0E0,0E0,0E0,0E0,0E0,0E0],"parents":[2147483647,0,0,1,1,2,2,3,3,4,4,5,5,6,6,7,7,8,8,9,9,10,10,11,11,12,12,13,13,14,14,15,15,16,16,17,17,19,19,20,20,21,21,23,23,24,24,27,27,28,28,29,29],"right_children":[2,4,6,8,10,12,14,16,18,20,22,24,26,28,30,32,34,36,-1,38,40,42,-1,44,46,-1,-1,48,50,52,-1,-1,-1,-1,-1,-1,-1,-1,-1,-1,-1,-1,-1,-1,-1,-1,-1,-1,-1,-1,-1,-1,-1],"split_conditions":[1.1E1,3.479759E2,1.1127255E2,2.7E1,1.643825E1,3.3263245E1,3.4364227E2,2.4E1,1E1,3.4947928E2,2.7636168E1,3.7E1,9E0,1.1E1,2.6857002E1,1.2202835E1,2.4593807E1,9.232001E0,-1.0982658E0,1.1E1,1.2357001E1,2.16445E1,1.917882E-1,4.9E1,2.0498667E1,1.6982226E-1,1.0352362E0,2.9184045E2,9.069501E0,1.0554916E1,6.2689936E-1,6.3126475E-2,-1.04132764E-1,2.5230005E0,1.0567834E-1,-9.314127E-2,-4.0339747E-1,2.7557483E0,-3.9850098E-1,7.853568E-1,2.727415E-2,-2.3473804E-1,-5.684621E-2,-1.06560804E-1,-7.348221E-1,1.0399586E-1,8.614012E-1,-1.875997E-1,5.6007475E-1,-7.876275E-1,3.1772754E-1,4.264705E-1,-6.351938E-1],"split_indices":[6,3,3,5,0,0,3,5,6,3,0,6,5,5,0,0,3,0,0,5,0,0,0,5,0,0,0,3,0,0,0,0,0,0,0,0,0,0,0,0,0,0,0,0,0,0,0,0,0,0,0,0,0],"split_type":[0,0,0,0,0,0,0,0,0,0,0,0,0,0,0,0,0,0,0,0,0,0,0,0,0,0,0,0,0,0,0,0,0,0,0,0,0,0,0,0,0,0,0,0,0,0,0,0,0,0,0,0,0],"sum_hessian":[1.95E3,1.153E3,7.97E2,1.13E3,2.3E1,3.02E2,4.95E2,1.121E3,9E0,1E1,1.3E1,2.98E2,4E0,4.8E2,1.5E1,1.116E3,5E0,5E0,4E0,4E0,6E0,1.2E1,1E0,2.58E2,4E1,1E0,3E0,7.4E1,4.06E2,1.4E1,1E0,1.37E2,9.79E2,1E0,4E0,1E0,4E0,3E0,1E0,2E0,4E0,7E0,5E0,2.49E2,9E0,3.4E1,6E0,6.1E1,1.3E1,7E0,3.99E2,1E0,1.3E1],"tree_param":{"num_deleted":"0","num_feature":"7","num_nodes":"53","size_leaf_vector":"1"}},{"base_weights":[2.7725969E-2,-1.0648227E0,1.412756E0,-1.2286478E0,-3.7469056E-1,5.14542E0,6.0092235E-1,-1.0956571E0,-2.6893196E0,-9.1408277E-1,2.5077999E0,4.0211997E0,9.733104E0,-3.6342378E0,8.1644017E-1,8.7603E-1,-1.1637219E0,-2.8065834E0,1.021452E0,-3.9057024E0,-6.9753265E-1,1.0299776E1,-2.8587642E-1,6.733653E0,2.6497552E0,7.054063E0,2.5383356E0,-5.8165874E0,-2.3916366E0,1.03942014E-1,2.2920914E0,4.2708382E-1,-4.5894604E-2,-1.5471423E-1,-9.021606E-2,-2.4952506E-1,-4.487323E-1,4.05147E-1,-2.519292E-1,5.6485113E-2,-4.856298E-1,-4.6566125E-2,-3.2479814E-1,1.361702E0,-8.7371856E-2,1.2497034E0,-1.2970743E-1,7.56592E-1,-6.607788E-1,3.564394E-1,-3.9104524E-1,9.3942404E-1,1.3299029E-1,-1.5629554E-1,-7.060803E-1,2.7193382E-1,-3.879753E-1,5.4213846E-1,-1.6096225E-2,7.7701765E-1,1.5296528E-1],"categories":[],"categories_nodes":[],"categories_segments":[],"categories_sizes":[],"default_left":[0,0,0,0,0,0,0,0,0,0,0,0,0,0,0,0,0,0,0,0,0,0,0,0,0,0,0,0,0,0,0,0,0,0,0,0,0,0,0,0,0,0,0,0,0,0,0,0,0,0,0,0,0,0,0,0,0,0,0,0,0],"id":20,"left_children":[1,3,5,7,9,11,13,15,17,19,21,23,25,27,29,31,33,35,37,39,41,43,45,47,49,51,-1,53,55,57,59,-1,-1,-1,-1,-1,-1,-1,-1,-1,-1,-1,-1,-1,-1,-1,-1,-1,-1,-1,-1,-1,-1,-1,-1,-1,-1,-1,-1,-1,-1],"loss_changes":[2.9991782E3,1.2481116E2,2.6453916E3,1.7091248E2,3.35018E2,7.654419E2,6.592361E2,1.11334045E2,3.5067017E1,1.1453389E2,7.4306525E2,4.5459473E2,1.0787739E3,8.1001465E1,7.1996985E2,1.2885574E2,7.833313E1,2.6478455E1,4.2392387E1,5.373935E1,9.9021484E1,3.4548438E2,3.522869E2,5.1634656E2,5.299573E2,3.491864E2,0E0,5.247354E1,1.9308775E2,6.5306055E2,9.1951917E2,0E0,0E0,0E0,0E0,0E0,0E0,0E0,0E0,0E0,0E0,0E0,0E0,0E0,0E0,0E0,0E0,0E0,0E0,0E0,0E0,0E0,0E0,0E0,0E0,0E0,0E0,0E0,0E0,0E0,0E0],"parents":[2147483647,0,0,1,1,2,2,3,3,4,4,5,5,6,6,7,7,8,8,9,9,10,10,11,11,12,12,13,13,14,14,15,15,16,16,17,17,18,18,19,19,20,20,21,21,22,22,23,23,24,24,25,25,27,27,28,28,29,29,30,30],"right_children":[2,4,6,8,10,12,14,16,18,20,22,24,26,28,30,32,34,36,38,40,42,44,46,48,50,52,-1,54,56,58,60,-1,-1,-1,-1,-1,-1,-1,-1,-1,-1,-1,-1,-1,-1,-1,-1,-1,-1,-1,-1,-1,-1,-1,-1,-1,-1,-1,-1,-1,-1],"split_conditions":[1E1,7E0,1.8E1,1.1E1,2.672298E2,4E1,5E0,1.3276144E1,3.3879367E2,1.5137133E1,2.3587555E1,1.3755579E1,2.6638193E2,2.1434364E1,2.1122748E2,5.984643E1,4E0,2.8073868E2,1.6394829E1,3E0,2.4304677E2,3.104656E2,2.684411E2,3.5691785E2,2.6E1,1.6767075E1,2.5383356E0,1.3E1,2.3469128E1,1.464132E1,2.0499462E1,4.2708382E-1,-4.5894604E-2,-1.5471423E-1,-9.021606E-2,-2.4952506E-1,-4.487323E-1,4.05147E-1,-2.519292E-1,5.6485113E-2,-4.856298E-1,-4.6566125E-2,-3.2479814E-1,1.361702E0,-8.7371856E-2,1.2497034E0,-1.2970743E-1,7.56592E-1,-6.607788E-1,3.564394E-1,-3.9104524E-1,9.3942404E-1,1.3299029E-1,-1.5629554E-1,-7.060803E-1,2.7193382E-1,-3.879753E-1,5.4213846E-1,-1.6096225E-2,7.7701765E-1,1.5296528E-1],"split_indices":[4,4,2,6,3,4,6,2,3,2,2,2,3,2,3,3,4,3,2,6,3,3,3,3,4,2,0,4,2,3,2,0,0,0,0,0,0,0,0,0,0,0,0,0,0,0,0,0,0,0,0,0,0,0,0,0,0,0,0,0,0],"split_type":[0,0,0,0,0,0,0,0,0,0,0,0,0,0,0,0,0,0,0,0,0,0,0,0,0,0,0,0,0,0,0,0,0,0,0,0,0,0,0,0,0,0,0,0,0,0,0,0,0,0,0,0,0,0,0,0,0,0,0,0,0],"sum_hessian":[1.98E3,1.107E3,8.73E2,8.94E2,2.13E2,1.55E2,7.18E2,8.21E2,7.3E1,1.8E2,3.3E1,1.26E2,2.9E1,3.4E1,6.84E2,2.7E1,7.94E2,7.1E1,2E0,1.1E1,1.69E2,8E0,2.5E1,4.1E1,8.5E1,2.6E1,3E0,1.1E1,2.3E1,4.62E2,2.22E2,7E0,2E1,3.2E2,4.74E2,6.2E1,9E0,1E0,1E0,2E0,9E0,1.56E2,1.3E1,6E0,2E0,1E0,2.4E1,3.9E1,2E0,7.5E1,1E1,1.8E1,8E0,3E0,8E0,5E0,1.8E1,2.1E1,4.41E2,2.6E1,1.96E2],"tree_param":{"num_deleted":"0","num_feature":"7","num_nodes":"61","size_leaf_vector":"1"}},{"base_weights":[2.2049E-1,-2.6420626E-1,7.034587E0,-9.045166E-1,1.205152E0,2.0456406E1,5.483149E0,-1.0671844E0,6.696169E-1,2.0952194E0,1.0950495E0,4.530089E0,7.20341E1,2.3263168E1,4.4816914E0,-9.1737676E-1,-2.2013032E0,2.1265196E1,-4.6348013E-2,-3.770112E0,1.4951317E0,3.444194E0,-1.90529E0,1.078886E1,1.6254902E-2,4.477012E1,1.317164E0,1.1304623E1,3.3100562E0,-1.2198265E-1,-4.6700533E-2,-2.3918246E-1,4.540968E-1,4.1132647E-1,2.5611417E0,-1.13038436E-1,5.9184265E-1,-6.99182E-2,-8.2450575E-1,1.4122887E0,1.2905066E-1,-7.286164E-1,1.3078805E0,6.802082E-2,6.6474967E0,-5.434021E-1,1.0785359E0,2.698263E0,5.611035E-1,-7.38324E-1,4.487589E-1],"categories":[],"categories_nodes":[],"categories_segments":[],"categories_sizes":[],"default_left":[0,0,0,0,0,0,0,0,0,0,0,0,0,0,0,0,0,0,0,0,0,0,0,0,0,0,0,0,0,0,0,0,0,0,0,0,0,0,0,0,0,0,0,0,0,0,0,0,0,0,0],"id":21,"left_children":[1,3,5,7,9,11,13,15,17,-1,19,21,23,25,27,29,31,33,35,37,39,-1,41,-1,-1,43,45,47,49,-1,-1,-1,-1,-1,-1,-1,-1,-1,-1,-1,-1,-1,-1,-1,-1,-1,-1,-1,-1,-1,-1],"loss_changes":[6.415832E3,1.7077833E3,2.5740176E3,3.243756E2,1.1750397E3,1.0352436E4,1.9790359E3,1.9268555E2,1.7557252E3,0E0,1.0742457E3,2.183057E3,7.7132197E3,2.77298E3,8.579075E2,1.3755206E2,1.8170593E2,1.9283777E2,7.567498E2,5.714095E2,1.2944238E3,0E0,9.015696E2,0E0,0E0,2.8256782E3,3.1429395E2,1.2768248E3,1.2545287E3,0E0,0E0,0E0,0E0,0E0,0E0,0E0,0E0,0E0,0E0,0E0,0E0,0E0,0E0,0E0,0E0,0E0,0E0,0E0,0E0,0E0,0E0],"parents":[2147483647,0,0,1,1,2,2,3,3,4,4,5,5,6,6,7,7,8,8,10,10,11,11,12,12,13,13,14,14,15,15,16,16,17,17,18,18,19,19,20,20,22,22,25,25,26,26,27,27,28,28],"right_children":[2,4,6,8,10,12,14,16,18,-1,20,22,24,26,28,30,32,34,36,38,40,-1,42,-1,-1,44,46,48,50,-1,-1,-1,-1,-1,-1,-1,-1,-1,-1,-1,-1,-1,-1,-1,-1,-1,-1,-1,-1,-1,-1],"split_conditions":[3.3E1,1.3E1,3.5E1,2.9184045E2,3E0,2.1361166E1,9.161168E0,1.3E1,9.069501E0,2.0952194E0,1.1142417E1,1.1215333E1,2.16445E1,5E1,1E1,1.3297096E2,6.2E1,5E0,1.6E1,2.1E1,1.1465335E1,3.444194E0,3.8E1,1.078886E1,1.6254902E-2,8.684084E0,6.4E1,2.4593807E1,3.3430775E1,-1.2198265E-1,-4.6700533E-2,-2.3918246E-1,4.540968E-1,4.1132647E-1,2.5611417E0,-1.13038436E-1,5.9184265E-1,-6.99182E-2,-8.2450575E-1,1.4122887E0,1.2905066E-1,-7.286164E-1,1.3078805E0,6.802082E-2,6.6474967E0,-5.434021E-1,1.0785359E0,2.698263E0,5.611035E-1,-7.38324E-1,4.487589E-1],"split_indices":[4,4,4,3,5,0,0,5,0,0,0,0,0,4,6,3,5,4,5,5,0,0,6,0,0,0,4,3,3,0,0,0,0,0,0,0,0,0,0,0,0,0,0,0,0,0,0,0,0,0,0],"split_type":[0,0,0,0,0,0,0,0,0,0,0,0,0,0,0,0,0,0,0,0,0,0,0,0,0,0,0,0,0,0,0,0,0,0,0,0,0,0,0,0,0,0,0,0,0,0,0,0,0,0,0],"sum_hessian":[1.941E3,1.813E3,1.28E2,1.263E3,5.5E2,1.2E1,1.16E2,1.145E3,1.18E2,2E0,5.48E2,1E1,2E0,5E0,1.11E2,1.013E3,1.32E2,3E0,1.15E2,4.1E1,5.07E2,1E0,9E0,1E0,1E0,2E0,3E0,1.5E1,9.6E1,6.05E2,4.08E2,1.29E2,3E0,1E0,2E0,9.8E1,1.7E1,2.5E1,1.6E1,7E0,5E2,7E0,2E0,1E0,1E0,2E0,1E0,3E0,1.2E1,9E0,8.7E1],"tree_param":{"num_deleted":"0","num_feature":"7","num_nodes":"51","size_leaf_vector":"1"}},{"base_weights":[1.7042285E-1,-4.1950575E-1,4.5915523E0,-8.6354643E-1,8.0618787E-1,-2.381889E0,5.579744E0,-6.7922455E-1,-1.7519909E0,7.1820456E-1,2.0375314E0,-5.363347E0,4.839501E0,1.2149224E1,4.063582E0,6.573039E0,-7.1353704E-1,-4.4608693E0,-1.4968809E0,1.9694699E0,-6.942868E-1,5.5236834E-1,-6.1838827E0,-9.3413013E-1,1.022563E1,7.6708503E0,3.0246422E1,1.6893263E1,3.4694593E0,-9.17683E-2,1.8267964E0,-7.938816E-2,1.542538E-1,-2.8511474E-1,-6.5831256E-1,-1.900449E-1,-4.8998456E-2,6.815128E-1,1.02882884E-1,-4.8541448E-1,-2.1650884E-2,-4.22999E-1,-1.1199564E0,1.222231E0,-8.772259E-2,9.530019E-1,-1.6640209E-1,1.0249417E1,1.12276845E-1,-8.92653E-2,3.0455863E0,2.6830286E-1,1.2034801E0],"categories":[],"categories_nodes":[],"categories_segments":[],"categories_sizes":[],"default_left":[0,0,0,0,0,0,0,0,0,0,0,0,0,0,0,0,0,0,0,0,0,0,0,0,0,0,0,0,0,0,0,0,0,0,0,0,0,0,0,0,0,0,0,0,0,0,0,0,0,0,0,0,0],"id":22,"left_children":[1,3,5,7,9,11,13,15,17,19,-1,21,23,25,27,29,31,33,35,37,39,-1,41,-1,43,45,47,49,51,-1,-1,-1,-1,-1,-1,-1,-1,-1,-1,-1,-1,-1,-1,-1,-1,-1,-1,-1,-1,-1,-1,-1,-1],"loss_changes":[5.051306E3,9.308329E2,1.5844595E3,2.0432861E2,7.6876587E2,6.5033374E2,1.94271E3,2.6373618E2,1.4190094E2,8.037677E2,0E0,2.21755E2,7.829373E2,2.766687E3,1.1914636E3,4.5478134E2,1.8919446E2,4.27229E1,7.95264E1,1.0914722E3,4.2427155E2,0E0,1.4862799E2,0E0,1.6590381E2,5.5386597E2,1.4613752E4,1.7157493E3,1.032006E3,0E0,0E0,0E0,0E0,0E0,0E0,0E0,0E0,0E0,0E0,0E0,0E0,0E0,0E0,0E0,0E0,0E0,0E0,0E0,0E0,0E0,0E0,0E0,0E0],"parents":[2147483647,0,0,1,1,2,2,3,3,4,4,5,5,6,6,7,7,8,8,9,9,11,11,12,12,13,13,14,14,15,15,16,16,17,17,18,18,19,19,20,20,22,22,24,24,25,25,26,26,27,27,28,28],"right_children":[2,4,6,8,10,12,14,16,18,20,-1,22,24,26,28,30,32,34,36,38,40,-1,42,-1,44,46,48,50,52,-1,-1,-1,-1,-1,-1,-1,-1,-1,-1,-1,-1,-1,-1,-1,-1,-1,-1,-1,-1,-1,-1,-1,-1],"split_conditions":[2.5E1,1.3E1,1.0854917E1,4E-1,1.06E2,2.7E1,1.2E1,7.7590833E0,1.1673667E1,1.7E1,2.0375314E0,8E0,5.8E1,1.8417418E1,1.1215333E1,9E0,2.2E1,8E0,2.1911165E1,1.2202835E1,1.2315334E1,5.5236834E-1,5.7E1,-9.3413013E-1,8.3E1,1.643825E1,2.16445E1,3.2E1,2.9363249E1,-9.17683E-2,1.8267964E0,-7.938816E-2,1.542538E-1,-2.8511474E-1,-6.5831256E-1,-1.900449E-1,-4.8998456E-2,6.815128E-1,1.02882884E-1,-4.8541448E-1,-2.1650884E-2,-4.22999E-1,-1.1199564E0,1.222231E0,-8.772259E-2,9.530019E-1,-1.6640209E-1,1.0249417E1,1.12276845E-1,-8.92653E-2,3.0455863E0,2.6830286E-1,1.2034801E0],"split_indices":[4,4,0,1,5,6,6,0,0,5,0,5,4,0,0,4,5,5,0,0,0,0,4,0,5,0,0,4,0,0,0,0,0,0,0,0,0,0,0,0,0,0,0,0,0,0,0,0,0,0,0,0,0],"split_type":[0,0,0,0,0,0,0,0,0,0,0,0,0,0,0,0,0,0,0,0,0,0,0,0,0,0,0,0,0,0,0,0,0,0,0,0,0,0,0,0,0,0,0,0,0,0,0,0,0,0,0,0,0],"sum_hessian":[1.935E3,1.708E3,2.27E2,1.254E3,4.54E2,2.8E1,1.99E2,1.04E3,2.14E2,4.53E2,1E0,2E1,8E0,3.6E1,1.63E2,4E0,1.036E3,1.7E1,1.97E2,2.4E2,2.13E2,1E0,1.9E1,2E0,6E0,3E1,6E0,6E0,1.57E2,3E0,1E0,1.001E3,3.5E1,1.1E1,6E0,1.4E2,5.7E1,3.8E1,2.02E2,2.1E1,1.92E2,1.5E1,4E0,5E0,1E0,2.5E1,5E0,1E0,5E0,3E0,3E0,1.45E2,1.2E1],"tree_param":{"num_deleted":"0","num_feature":"7","num_nodes":"53","size_leaf_vector":"1"}},{"base_weights":[1.9466782E-2,-5.1115686E-1,2.3481019E0,-8.9962065E-1,2.0260514E-1,3.073393E0,-2.4364154E0,-7.1773034E-1,-2.4566252E0,8.2969695E-1,-1.0460728E0,2.5896144E0,1.2737587E1,-5.156938E0,2.5354254E0,-1.1676337E0,-4.6233875E-1,-2.0209582E0,-4.294296E0,5.3617387E0,7.8749046E-2,-1.2758374E0,1.3777787E1,1.41351E0,6.685193E0,4.4925575E0,2.1518684E1,-1.1603561E1,-3.222965E0,8.162403E0,-1.0078931E0,-1.2140385E-1,4.8048917E-2,6.4270236E-2,-6.1424345E-2,-2.76617E-1,-7.708778E-2,-2.7893314E-1,-4.8900977E-1,2.9282492E-1,1.2811341E0,-2.690672E-2,5.431182E-1,-5.3920335E-1,-7.012964E-2,2.0758579E0,-9.189892E-3,6.3521214E-2,4.6651682E-1,2.456557E0,4.5586154E-1,1.5425193E0,-7.33859E-1,2.4772305E0,9.984799E-2,-1.2675831E0,-2.5849724E-1,-5.437131E-1,1.031423E0,1.4038329E0,-4.0467438E-1],"categories":[],"categories_nodes":[],"categories_segments":[],"categories_sizes":[],"default_left":[0,0,0,0,0,0,0,0,0,0,0,0,0,0,0,0,0,0,0,0,0,0,0,0,0,0,0,0,0,0,0,0,0,0,0,0,0,0,0,0,0,0,0,0,0,0,0,0,0,0,0,0,0,0,0,0,0,0,0,0,0],"id":23,"left_children":[1,3,5,7,9,11,13,15,17,19,21,23,25,27,29,31,33,35,37,39,41,43,45,47,49,51,53,55,57,59,-1,-1,-1,-1,-1,-1,-1,-1,-1,-1,-1,-1,-1,-1,-1,-1,-1,-1,-1,-1,-1,-1,-1,-1,-1,-1,-1,-1,-1,-1,-1],"loss_changes":[2.4502166E3,4.479745E2,1.2845101E3,2.944682E2,4.471983E2,1.4631204E3,6.7584924E2,1.0723779E2,7.8588135E1,1.292842E3,6.6812384E2,1.4644998E3,9.893325E2,3.615652E2,1.359921E3,2.6510315E1,1.0111131E2,8.170932E1,4.2931213E0,9.4142566E2,6.102252E2,4.4318915E2,2.923719E2,6.0188794E2,2.4736477E3,1.2773098E3,4.4261963E2,3.492578E1,8.353933E2,9.8943E2,0E0,0E0,0E0,0E0,0E0,0E0,0E0,0E0,0E0,0E0,0E0,0E0,0E0,0E0,0E0,0E0,0E0,0E0,0E0,0E0,0E0,0E0,0E0,0E0,0E0,0E0,0E0,0E0,0E0,0E0,0E0],"parents":[2147483647,0,0,1,1,2,2,3,3,4,4,5,5,6,6,7,7,8,8,9,9,10,10,11,11,12,12,13,13,14,14,15,15,16,16,17,17,18,18,19,19,20,20,21,21,22,22,23,23,24,24,25,25,26,26,27,27,28,28,29,29],"right_children":[2,4,6,8,10,12,14,16,18,20,22,24,26,28,30,32,34,36,38,40,42,44,46,48,50,52,54,56,58,60,-1,-1,-1,-1,-1,-1,-1,-1,-1,-1,-1,-1,-1,-1,-1,-1,-1,-1,-1,-1,-1,-1,-1,-1,-1,-1,-1,-1,-1,-1,-1],"split_conditions":[1.9E1,9E0,4.6E1,1E1,1.7E1,4.1E1,6.7E1,4E0,1.9E1,1.2202835E1,3.479759E2,3.8E1,1.6596582E1,5.545872E1,2.1803908E2,3.415811E2,1.346325E1,7E0,1.2510414E2,2.6361932E2,1.6E1,1.1142417E1,1.3396583E1,2.7153677E2,9.563251E0,1.3952832E1,2.175075E1,6.4E1,5.8E1,1.03E2,-1.0078931E0,-1.2140385E-1,4.8048917E-2,6.4270236E-2,-6.1424345E-2,-2.76617E-1,-7.708778E-2,-2.7893314E-1,-4.8900977E-1,2.9282492E-1,1.2811341E0,-2.690672E-2,5.431182E-1,-5.3920335E-1,-7.012964E-2,2.0758579E0,-9.189892E-3,6.3521214E-2,4.6651682E-1,2.456557E0,4.5586154E-1,1.5425193E0,-7.33859E-1,2.4772305E0,9.984799E-2,-1.2675831E0,-2.5849724E-1,-5.437131E-1,1.031423E0,1.4038329E0,-4.0467438E-1],"split_indices":[4,4,5,5,5,6,5,4,5,0,3,4,0,3,3,3,0,4,3,3,5,0,0,3,0,0,0,5,4,5,0,0,0,0,0,0,0,0,0,0,0,0,0,0,0,0,0,0,0,0,0,0,0,0,0,0,0,0,0,0,0],"split_type":[0,0,0,0,0,0,0,0,0,0,0,0,0,0,0,0,0,0,0,0,0,0,0,0,0,0,0,0,0,0,0,0,0,0,0,0,0,0,0,0,0,0,0,0,0,0,0,0,0,0,0,0,0,0,0,0,0,0,0,0,0],"sum_hessian":[1.981E3,1.614E3,3.67E2,1.045E3,5.69E2,3.19E2,4.8E1,9.37E2,1.08E2,3.79E2,1.9E2,3.05E2,1.4E1,3.1E1,1.7E1,3.38E2,5.99E2,8.9E1,1.9E1,5.3E1,3.26E2,1.88E2,2E0,2.38E2,6.7E1,8E0,6E0,6E0,2.5E1,1.2E1,5E0,3.29E2,9E0,7.2E1,5.27E2,5.5E1,3.4E1,7E0,1.2E1,4.1E1,1.2E1,3.07E2,1.9E1,2.2E1,1.66E2,1E0,1E0,1.93E2,4.5E1,6E0,6.1E1,4E0,4E0,5E0,1E0,5E0,1E0,2.2E1,3E0,8E0,4E0],"tree_param":{"num_deleted":"0","num_feature":"7","num_nodes":"61","size_leaf_vector":"1"}},{"base_weights":[1.971002E-1,-5.160228E-1,8.7088305E-1,4.32999E0,-6.1990666E-1,-9.5218316E-2,1.67144E0,1.4804608E0,1.5357991E0,-6.423919E-1,1.0111946E0,5.580891E0,-2.6157093E-1,8.346602E0,1.2136538E0,-9.088886E-1,9.473068E0,-5.626259E-1,-3.0086422E0,9.324868E-1,1.0848616E1,1.0270758E0,-1.139203E0,2.6703672E0,3.5336678E1,1.1166908E0,1.7357467E0,2.5179693E-1,-2.0723926E-1,1.4329205E0,-2.5476703E-1,-5.9891343E-2,6.038117E-1,-5.5040103E-1,-1.463404E-2,-1.8203099E-1,2.9482266E-1,1.4268618E0,-3.1256983E-1,1.8690182E-1,-2.3926108E-1,-1.3083653E-1,7.8850764E-1,2.724525E0,8.8346615E-2,9.73377E0,3.4689328E-1,1.3647291E-1,-2.7759275E-1],"categories":[],"categories_nodes":[],"categories_segments":[],"categories_sizes":[],"default_left":[0,0,0,0,0,0,0,0,0,0,0,0,0,0,0,0,0,0,0,0,0,0,0,0,0,0,0,0,0,0,0,0,0,0,0,0,0,0,0,0,0,0,0,0,0,0,0,0,0],"id":24,"left_children":[1,3,5,7,9,11,13,15,-1,17,-1,19,21,23,25,27,29,31,33,35,37,39,41,43,45,47,-1,-1,-1,-1,-1,-1,-1,-1,-1,-1,-1,-1,-1,-1,-1,-1,-1,-1,-1,-1,-1,-1,-1],"loss_changes":[9.3644403E2,4.794253E2,7.7512506E2,6.057553E2,2.3042972E2,4.3108704E2,1.6644471E3,3.332612E2,0E0,1.7327518E2,0E0,3.082085E2,5.0218423E2,5.267708E3,7.852089E2,6.1038494E1,2.700035E2,2.1870969E2,2.1346942E2,4.9758064E1,3.3135254E2,5.2272406E2,4.133304E2,1.2933163E3,1.151734E4,4.9813385E2,0E0,0E0,0E0,0E0,0E0,0E0,0E0,0E0,0E0,0E0,0E0,0E0,0E0,0E0,0E0,0E0,0E0,0E0,0E0,0E0,0E0,0E0,0E0],"parents":[2147483647,0,0,1,1,2,2,3,3,4,4,5,5,6,6,7,7,9,9,11,11,12,12,13,13,14,14,15,15,16,16,17,17,18,18,19,19,20,20,21,21,22,22,23,23,24,24,25,25],"right_children":[2,4,6,8,10,12,14,16,-1,18,-1,20,22,24,26,28,30,32,34,36,38,40,42,44,46,48,-1,-1,-1,-1,-1,-1,-1,-1,-1,-1,-1,-1,-1,-1,-1,-1,-1,-1,-1,-1,-1,-1,-1],"split_conditions":[8E0,1.2074766E1,1.2813362E2,3.3879367E2,2.5E1,1.2768586E1,1.3575612E2,6E0,1.5357991E0,1.4E1,1.0111946E0,1.5E1,6.994762E1,1.350001E2,1.06E2,7.386355E1,1.3E1,1.3E1,2.2218153E1,1.2074766E1,9.104442E1,2E-1,6.7E1,1.0739832E1,2.3408997E1,4.6E1,1.7357467E0,2.5179693E-1,-2.0723926E-1,1.4329205E0,-2.5476703E-1,-5.9891343E-2,6.038117E-1,-5.5040103E-1,-1.463404E-2,-1.8203099E-1,2.9482266E-1,1.4268618E0,-3.1256983E-1,1.8690182E-1,-2.3926108E-1,-1.3083653E-1,7.8850764E-1,2.724525E0,8.8346615E-2,9.73377E0,3.4689328E-1,1.3647291E-1,-2.7759275E-1],"split_indices":[6,2,3,3,5,2,3,6,0,5,0,5,3,3,5,3,5,5,2,2,3,1,5,2,2,5,0,0,0,0,0,0,0,0,0,0,0,0,0,0,0,0,0,0,0,0,0,0,0],"split_type":[0,0,0,0,0,0,0,0,0,0,0,0,0,0,0,0,0,0,0,0,0,0,0,0,0,0,0,0,0,0,0,0,0,0,0,0,0,0,0,0,0,0,0,0,0,0,0,0,0],"sum_hessian":[1.947E3,9.46E2,1.001E3,1.9E1,9.27E2,4.54E2,5.47E2,1.6E1,3E0,9.26E2,1E0,1.2E1,4.42E2,3.4E1,5.13E2,1.3E1,3E0,8.97E2,2.9E1,7E0,5E0,1.79E2,2.63E2,2.9E1,5E0,5.11E2,2E0,3E0,1E1,2E0,1E0,8.93E2,4E0,1.5E1,1.4E1,3E0,4E0,4E0,1E0,1.44E2,3.5E1,2.59E2,4E0,1E0,2.8E1,1E0,4E0,4.81E2,3E1],"tree_param":{"num_deleted":"0","num_feature":"7","num_nodes":"49","size_leaf_vector":"1"}},{"base_weights":[5.0513796E-3,-4.1254088E-1,3.7931838E0,-6.7869383E-1,1.1439931E0,5.1999474E0,-2.392636E0,4.8195047E0,-7.293552E-1,8.8789445E-1,2.2787151E0,2.4688375E1,4.541985E0,2.4340699E0,-4.6157036E0,-1.0826812E0,1.0876359E1,-5.843576E-1,-1.8432132E0,7.049839E-1,1.6200303E0,-1.7263079E-1,6.20662E0,-7.933288E0,5.6366835E0,-7.9521284E0,4.520571E0,-1.6874406E-1,1.575317E-1,1.9358568E0,-3.2493927E-2,-8.264184E-2,1.5366143E-1,-5.117023E-1,-1.2556304E-1,1.7186587E-1,-1.9604878E-1,-5.359017E-1,7.693264E-1,2.1597366E-1,-1.1177169E0,3.6558175E-1,1.0055566E0,-2.3580505E-2,-1.0782574E0,-1.20619155E-1,1.8285083E0],"categories":[],"categories_nodes":[],"categories_segments":[],"categories_sizes":[],"default_left":[0,0,0,0,0,0,0,0,0,0,0,0,0,0,0,0,0,0,0,0,0,0,0,0,0,0,0,0,0,0,0,0,0,0,0,0,0,0,0,0,0,0,0,0,0,0,0],"id":25,"left_children":[1,3,5,7,9,11,13,15,17,19,-1,21,23,-1,25,27,29,31,33,35,-1,37,-1,39,41,43,45,-1,-1,-1,-1,-1,-1,-1,-1,-1,-1,-1,-1,-1,-1,-1,-1,-1,-1,-1,-1],"loss_changes":[3.1226433E3,7.373594E2,1.7180305E3,4.2662732E2,1.4208914E3,1.9394893E3,2.3112595E3,5.1225714E2,2.4215204E2,7.111859E2,0E0,4.656966E3,2.1751565E3,0E0,1.1028356E3,1.5517847E1,6.713726E2,6.861509E2,3.2636365E2,6.950613E2,0E0,2.0441061E2,0E0,4.497672E2,1.2237017E3,5.653137E2,8.1031616E2,0E0,0E0,0E0,0E0,0E0,0E0,0E0,0E0,0E0,0E0,0E0,0E0,0E0,0E0,0E0,0E0,0E0,0E0,0E0,0E0],"parents":[2147483647,0,0,1,1,2,2,3,3,4,4,5,5,6,6,7,7,8,8,9,9,11,11,12,12,14,14,15,15,16,16,17,17,18,18,19,19,21,21,23,23,24,24,25,25,26,26],"right_children":[2,4,6,8,10,12,14,16,18,20,-1,22,24,-1,26,28,30,32,34,36,-1,38,-1,40,42,44,46,-1,-1,-1,-1,-1,-1,-1,-1,-1,-1,-1,-1,-1,-1,-1,-1,-1,-1,-1,-1],"split_conditions":[2.7E1,1.7E1,4.6E1,1.1298495E1,4.2035297E1,9.161168E0,1.2074766E1,9E0,1.7E1,1.06E2,2.2787151E0,1.2522619E1,1.0854917E1,2.4340699E0,6.1E1,3E-1,1.2E1,1.3E1,1.1065334E1,2.3E1,1.6200303E0,1E-1,6.20662E0,1.5784676E1,2.1361166E1,3.4E1,3.1087412E1,-1.6874406E-1,1.575317E-1,1.9358568E0,-3.2493927E-2,-8.264184E-2,1.5366143E-1,-5.117023E-1,-1.2556304E-1,1.7186587E-1,-1.9604878E-1,-5.359017E-1,7.693264E-1,2.1597366E-1,-1.1177169E0,3.6558175E-1,1.0055566E0,-2.3580505E-2,-1.0782574E0,-1.20619155E-1,1.8285083E0],"split_indices":[4,4,5,2,2,0,2,4,5,5,0,2,0,0,4,1,4,4,0,5,0,1,0,2,0,4,2,0,0,0,0,0,0,0,0,0,0,0,0,0,0,0,0,0,0,0,0],"split_type":[0,0,0,0,0,0,0,0,0,0,0,0,0,0,0,0,0,0,0,0,0,0,0,0,0,0,0,0,0,0,0,0,0,0,0,0,0,0,0,0,0,0,0,0,0,0,0],"sum_hessian":[1.972E3,1.777E3,1.95E2,1.518E3,2.59E2,1.59E2,3.6E1,1.3E1,1.505E3,2.57E2,2E0,4E0,1.55E2,2E0,3.4E1,7E0,6E0,1.333E3,1.72E2,2.55E2,2E0,3E0,1E0,1.2E1,1.43E2,2.5E1,9E0,6E0,1E0,3E0,3E0,1.197E3,1.36E2,2.5E1,1.47E2,1.85E2,7E1,2E0,1E0,3E0,9E0,1E2,4.3E1,7E0,1.8E1,7E0,2E0],"tree_param":{"num_deleted":"0","num_feature":"7","num_nodes":"47","size_leaf_vector":"1"}},{"base_weights":[4.1480325E-2,-4.4336748E-1,6.4582787E0,-6.604668E-1,1.0563719E0,8.703896E0,8.5120034E-1,4.8047123E0,-7.16168E-1,3.027941E0,-9.0723884E-1,2.1445312E0,1.5636315E1,-7.300705E0,6.034372E0,-2.9769876E0,6.829488E0,5.741282E-1,-7.938007E-1,7.231677E-1,9.758374E0,6.309875E-1,-4.0407763E0,-2.115616E0,1.2509926E1,3.5308266E1,9.365294E0,-1.8755722E0,-1.2491392E0,1.872284E1,1.0420746E0,3.952985E-2,-4.2328492E-1,2.6964697E-1,1.1201931E0,-5.1658746E-2,4.3629265E-1,-6.62275E-2,-1.2681887E-1,-4.553024E-2,4.3924943E-1,8.169686E-1,2.7120812E0,-3.5274708E-1,1.595767E-1,-4.7455233E-2,-5.668473E-1,-4.1974244E-1,1.2047442E0,1.9825573E0,-1.7678076E-1,9.196804E0,2.0445485E0,1.2327319E0,-5.090143E-1,-6.9985074E-1,1.0703133E0,7.0068926E-1,3.2008474E0,8.124222E-1,-9.711405E-1],"categories":[],"categories_nodes":[],"categories_segments":[],"categories_sizes":[],"default_left":[0,0,0,0,0,0,0,0,0,0,0,0,0,0,0,0,0,0,0,0,0,0,0,0,0,0,0,0,0,0,0,0,0,0,0,0,0,0,0,0,0,0,0,0,0,0,0,0,0,0,0,0,0,0,0,0,0,0,0,0,0],"id":26,"left_children":[1,3,5,7,9,11,13,15,17,19,21,23,25,27,29,31,33,35,37,39,41,43,45,47,49,51,53,55,-1,57,59,-1,-1,-1,-1,-1,-1,-1,-1,-1,-1,-1,-1,-1,-1,-1,-1,-1,-1,-1,-1,-1,-1,-1,-1,-1,-1,-1,-1,-1,-1],"loss_changes":[6.022978E3,5.8676404E2,1.7050156E3,4.8228864E2,8.854248E2,4.377277E3,1.7341641E3,2.7243048E2,1.5651953E2,1.7613251E3,5.568599E2,2.2785295E3,5.4673984E3,4.2713403E2,1.5641045E3,1.8613735E1,2.0472241E2,3.700465E2,9.087952E1,3.7388043E2,5.7835254E2,3.1856467E2,2.1788983E2,1.1415049E3,1.601811E3,7.383009E3,1.64699E3,6.5486505E2,0E0,8.652964E2,1.5258944E3,0E0,0E0,0E0,0E0,0E0,0E0,0E0,0E0,0E0,0E0,0E0,0E0,0E0,0E0,0E0,0E0,0E0,0E0,0E0,0E0,0E0,0E0,0E0,0E0,0E0,0E0,0E0,0E0,0E0,0E0],"parents":[2147483647,0,0,1,1,2,2,3,3,4,4,5,5,6,6,7,7,8,8,9,9,10,10,11,11,12,12,13,13,14,14,15,15,16,16,17,17,18,18,19,19,20,20,21,21,22,22,23,23,24,24,25,25,26,26,27,27,29,29,30,30],"right_children":[2,4,6,8,10,12,14,16,18,20,22,24,26,28,30,32,34,36,38,40,42,44,46,48,50,52,54,56,-1,58,60,-1,-1,-1,-1,-1,-1,-1,-1,-1,-1,-1,-1,-1,-1,-1,-1,-1,-1,-1,-1,-1,-1,-1,-1,-1,-1,-1,-1,-1,-1],"split_conditions":[3.3E1,1.9E1,2.5498845E2,1.1298495E1,2.4187069E1,1.3003659E2,2.90515E2,2.4593807E1,1.4917212E1,2.3233784E2,2.160472E2,2.2450264E1,1.4572623E2,5E1,9E0,4E0,9E0,2.4451445E2,1.5E1,2.2148045E1,3.1E1,2.6478971E1,2.2E1,7E1,2.6795223E1,1.2E1,1E-1,2.7E1,-1.2491392E0,1.5617529E1,3.37219E2,3.952985E-2,-4.2328492E-1,2.6964697E-1,1.1201931E0,-5.1658746E-2,4.3629265E-1,-6.62275E-2,-1.2681887E-1,-4.553024E-2,4.3924943E-1,8.169686E-1,2.7120812E0,-3.5274708E-1,1.595767E-1,-4.7455233E-2,-5.668473E-1,-4.1974244E-1,1.2047442E0,1.9825573E0,-1.7678076E-1,9.196804E0,2.0445485E0,1.2327319E0,-5.090143E-1,-6.9985074E-1,1.0703133E0,7.0068926E-1,3.2008474E0,8.124222E-1,-9.711405E-1],"split_indices":[4,4,3,2,2,3,3,3,2,3,3,2,3,4,6,4,4,3,6,2,4,2,4,4,2,6,1,6,0,2,3,0,0,0,0,0,0,0,0,0,0,0,0,0,0,0,0,0,0,0,0,0,0,0,0,0,0,0,0,0,0],"split_type":[0,0,0,0,0,0,0,0,0,0,0,0,0,0,0,0,0,0,0,0,0,0,0,0,0,0,0,0,0,0,0,0,0,0,0,0,0,0,0,0,0,0,0,0,0,0,0,0,0,0,0,0,0,0,0,0,0,0,0,0,0],"sum_hessian":[1.934E3,1.799E3,1.35E2,1.572E3,2.27E2,9.6E1,3.9E1,1.5E1,1.557E3,1.13E2,1.14E2,5E1,4.6E1,1.5E1,2.4E1,3E0,1.2E1,8.8E1,1.469E3,8.5E1,2.8E1,7.7E1,3.7E1,3.6E1,1.4E1,1E1,3.6E1,8E0,7E0,6E0,1.8E1,1E0,2E0,7E0,5E0,6.9E1,1.9E1,1.152E3,3.17E2,6.5E1,2E1,2.7E1,1E0,1.4E1,6.3E1,1.2E1,2.5E1,3.2E1,4E0,9E0,5E0,1E0,9E0,3E1,6E0,6E0,2E0,4E0,2E0,1.1E1,7E0],"tree_param":{"num_deleted":"0","num_feature":"7","num_nodes":"61","size_leaf_vector":"1"}},{"base_weights":[3.7319038E-2,-3.0258045E-1,4.9080534E0,-5.34371E-1,1.216075E0,6.643023E0,9.048462E-3,1.7673512E-1,-7.5597805E-1,9.197881E-1,9.952671E0,5.484602E0,5.8346524E0,-5.7100873E0,3.24121E0,-5.8856183E-1,1.8313389E0,-7.044689E-1,-5.9383297E0,4.390673E0,5.1797096E-2,5.173469E0,2.1703541E0,2.1553139E1,3.552393E0,-8.181426E0,5.2548504E0,6.248421E0,-6.320625E-1,-2.1053052E-2,-2.8313133E-1,9.100467E-1,1.3768974E-1,-7.824012E-2,2.9105076E-1,-8.819186E-2,-6.86142E-1,7.527262E-1,-3.7644187E-1,-4.2763138E-1,9.711969E-2,7.8383917E-1,-9.925569E-2,5.926631E0,4.7165576E-1,1.9333104E0,2.9465058E-1,-8.3457135E-2,-1.0832175E0,9.1858274E-1,-1.3035516E-1,-2.4117206E-1,1.1978668E0],"categories":[],"categories_nodes":[],"categories_segments":[],"categories_sizes":[],"default_left":[0,0,0,0,0,0,0,0,0,0,0,0,0,0,0,0,0,0,0,0,0,0,0,0,0,0,0,0,0,0,0,0,0,0,0,0,0,0,0,0,0,0,0,0,0,0,0,0,0,0,0,0,0],"id":27,"left_children":[1,3,5,7,9,11,13,15,17,19,21,23,-1,25,27,29,31,33,35,37,39,41,-1,43,45,47,49,51,-1,-1,-1,-1,-1,-1,-1,-1,-1,-1,-1,-1,-1,-1,-1,-1,-1,-1,-1,-1,-1,-1,-1,-1,-1],"loss_changes":[3.299361E3,6.564444E2,1.1048911E3,2.5495038E2,6.302146E2,5.429859E3,6.654885E2,4.885892E2,3.249519E2,7.228199E2,3.3699554E2,2.8729727E3,0E0,3.9526712E2,7.008464E2,2.2323111E2,3.904837E2,3.465431E2,4.9959076E1,1.2561357E3,7.721511E2,1.2280388E2,0E0,6.0700757E3,7.653093E2,2.0518109E2,8.931699E1,9.221345E2,0E0,0E0,0E0,0E0,0E0,0E0,0E0,0E0,0E0,0E0,0E0,0E0,0E0,0E0,0E0,0E0,0E0,0E0,0E0,0E0,0E0,0E0,0E0,0E0,0E0],"parents":[2147483647,0,0,1,1,2,2,3,3,4,4,5,5,6,6,7,7,8,8,9,9,10,10,11,11,13,13,14,14,15,15,16,16,17,17,18,18,19,19,20,20,21,21,23,23,24,24,25,25,26,26,27,27],"right_children":[2,4,6,8,10,12,14,16,18,20,22,24,-1,26,28,30,32,34,36,38,40,42,-1,44,46,48,50,52,-1,-1,-1,-1,-1,-1,-1,-1,-1,-1,-1,-1,-1,-1,-1,-1,-1,-1,-1,-1,-1,-1,-1,-1,-1],"split_conditions":[3.3E1,1.9E1,2.9168886E1,1.9486609E1,4.2035297E1,2.8673721E1,3.1435646E1,1E1,4.6E1,1.4E1,4.6000004E0,3.5E1,5.8346524E0,3.5E1,1.2E0,1E1,1.1298495E1,4E1,1.2E1,2.6729847E1,1.3E1,4.5872814E1,2.1703541E0,1.6E1,1.0739832E1,1.1E1,1E-1,3.8E1,-6.320625E-1,-2.1053052E-2,-2.8313133E-1,9.100467E-1,1.3768974E-1,-7.824012E-2,2.9105076E-1,-8.819186E-2,-6.86142E-1,7.527262E-1,-3.7644187E-1,-4.2763138E-1,9.711969E-2,7.8383917E-1,-9.925569E-2,5.926631E0,4.7165576E-1,1.9333104E0,2.9465058E-1,-8.3457135E-2,-1.0832175E0,9.1858274E-1,-1.3035516E-1,-2.4117206E-1,1.1978668E0],"split_indices":[4,4,2,2,2,2,2,4,5,5,1,4,0,5,1,5,2,6,6,2,6,2,0,5,2,5,1,4,0,0,0,0,0,0,0,0,0,0,0,0,0,0,0,0,0,0,0,0,0,0,0,0,0],"split_type":[0,0,0,0,0,0,0,0,0,0,0,0,0,0,0,0,0,0,0,0,0,0,0,0,0,0,0,0,0,0,0,0,0,0,0,0,0,0,0,0,0,0,0,0,0,0,0,0,0,0,0,0,0],"sum_hessian":[1.991E3,1.862E3,1.29E2,1.616E3,2.46E2,9.5E1,3.4E1,3.84E2,1.232E3,2.39E2,7E0,9.4E1,1E0,1.2E1,2.2E1,2.63E2,1.21E2,1.221E3,1.1E1,4.7E1,1.92E2,6E0,1E0,9E0,8.5E1,1E1,2E0,1.7E1,5E0,2.26E2,3.7E1,6E0,1.15E2,1.196E3,2.5E1,2E0,9E0,3.4E1,1.3E1,3.3E1,1.59E2,4E0,2E0,2E0,7E0,2E0,8.3E1,3E0,7E0,1E0,1E0,7E0,1E1],"tree_param":{"num_deleted":"0","num_feature":"7","num_nodes":"53","size_leaf_vector":"1"}},{"base_weights":[-2.2118248E-3,-2.6651672E-1,3.511505E0,-5.703241E-1,3.310761E-1,1.5021897E1,2.06751E0,-3.2800707E-1,-1.4750828E0,6.326085E-2,3.951452E0,8.440632E0,4.0368443E0,9.43752E0,1.101935E0,9.3371487E-1,-3.4809408E-1,-1.6224838E0,1.6204286E0,-2.0720971E-4,1.2037639E1,6.4174266E0,-3.5815156E0,2.0346294E1,-3.7692198E-1,-3.850949E0,1.5138002E1,-4.4426875E0,2.8923311E0,-4.6095308E-2,5.138247E-2,2.2127564E-1,-1.729366E-1,1.1948409E0,-4.0469773E-2,2.7352238E-2,-2.8995022E-1,-2.561905E-1,2.0618362E0,1.4442039E0,3.1408045E-1,-6.186437E-1,7.81678E-2,4.5737553E-2,3.0062065E0,-4.9764296E-1,1.00662E0,-1.3211805E0,6.793556E-1,2.6502802E0,3.144335E-1,-8.298551E-1,4.1911006E-1,8.5327643E-1,-1.3430322E-2],"categories":[],"categories_nodes":[],"categories_segments":[],"categories_sizes":[],"default_left":[0,0,0,0,0,0,0,0,0,0,0,0,0,0,0,0,0,0,0,0,0,0,0,0,0,0,0,0,0,0,0,0,0,0,0,0,0,0,0,0,0,0,0,0,0,0,0,0,0,0,0,0,0,0,0],"id":28,"left_children":[1,3,5,7,9,11,13,15,17,19,21,-1,23,25,27,-1,29,31,33,35,37,39,41,43,45,47,49,51,53,-1,-1,-1,-1,-1,-1,-1,-1,-1,-1,-1,-1,-1,-1,-1,-1,-1,-1,-1,-1,-1,-1,-1,-1,-1,-1],"loss_changes":[1.8053854E3,3.284369E2,2.229391E3,2.6238306E2,5.91201E2,1.1092139E4,8.577885E2,1.8710458E2,1.1806836E2,4.3243713E2,8.031807E2,0E0,1.01547437E3,1.1188052E3,1.0949004E3,0E0,9.225926E1,1.030271E2,2.5582108E2,4.507772E2,4.2864627E2,7.960364E2,1.2985938E2,5.6595886E2,6.2649243E2,5.879635E2,1.2797227E3,9.3362915E2,1.4180828E3,0E0,0E0,0E0,0E0,0E0,0E0,0E0,0E0,0E0,0E0,0E0,0E0,0E0,0E0,0E0,0E0,0E0,0E0,0E0,0E0,0E0,0E0,0E0,0E0,0E0,0E0],"parents":[2147483647,0,0,1,1,2,2,3,3,4,4,5,5,6,6,7,7,8,8,9,9,10,10,12,12,13,13,14,14,16,16,17,17,18,18,19,19,20,20,21,21,22,22,23,23,24,24,25,25,26,26,27,27,28,28],"right_children":[2,4,6,8,10,12,14,16,18,20,22,-1,24,26,28,-1,30,32,34,36,38,40,42,44,46,48,50,52,54,-1,-1,-1,-1,-1,-1,-1,-1,-1,-1,-1,-1,-1,-1,-1,-1,-1,-1,-1,-1,-1,-1,-1,-1,-1,-1],"split_conditions":[3.3E1,1.2E1,3.5E1,1E1,3.209469E2,1.2E1,3.8415337E1,9.793059E0,3.8047756E1,4.7424446E1,2E1,8.440632E0,1.8079027E1,1.7059862E1,1.0278345E2,9.3371487E-1,8E0,1.1901798E1,3.9985935E1,2.8319998E2,5E-1,3.3237027E2,3.3879367E2,1.613286E1,3.8E1,2.2218153E1,1.1E1,3.5E1,2.0211363E1,-4.6095308E-2,5.138247E-2,2.2127564E-1,-1.729366E-1,1.1948409E0,-4.0469773E-2,2.7352238E-2,-2.8995022E-1,-2.561905E-1,2.0618362E0,1.4442039E0,3.1408045E-1,-6.186437E-1,7.81678E-2,4.5737553E-2,3.0062065E0,-4.9764296E-1,1.00662E0,-1.3211805E0,6.793556E-1,2.6502802E0,3.144335E-1,-8.298551E-1,4.1911006E-1,8.5327643E-1,-1.3430322E-2],"split_indices":[4,4,4,6,3,6,3,2,2,2,4,0,2,3,3,0,4,2,2,3,1,3,3,2,6,2,6,6,2,0,0,0,0,0,0,0,0,0,0,0,0,0,0,0,0,0,0,0,0,0,0,0,0,0,0],"split_type":[0,0,0,0,0,0,0,0,0,0,0,0,0,0,0,0,0,0,0,0,0,0,0,0,0,0,0,0,0,0,0,0,0,0,0,0,0,0,0,0,0,0,0,0,0,0,0,0,0,0,0,0,0,0,0],"sum_hessian":[1.942E3,1.807E3,1.35E2,1.198E3,6.09E2,1.4E1,1.21E2,9.46E2,2.52E2,5.68E2,4.1E1,1E0,1.3E1,1.3E1,1.08E2,1E0,9.45E2,2.41E2,1.1E1,5.66E2,2E0,3.1E1,1E1,2E0,1.1E1,4E0,9E0,2.6E1,8.2E1,8.36E2,1.09E2,6E0,2.35E2,1E0,1E1,5.18E2,4.8E1,1E0,1E0,8E0,2.3E1,6E0,4E0,1E0,1E0,8E0,3E0,2E0,2E0,4E0,5E0,1.8E1,8E0,2.8E1,5.4E1],"tree_param":{"num_deleted":"0","num_feature":"7","num_nodes":"55","size_leaf_vector":"1"}},{"base_weights":[1.0260498E-1,1.3175319E-2,8.798981E0,-2.6492238E-1,1.3561646E0,1.0608144E1,-4.9889946E-1,-4.1842183E-1,3.3541712E-1,-5.4995823E0,2.1514812E0,1.3593624E1,1.2717056E-1,-5.493926E-1,8.013822E-1,3.3308713E0,-2.5186527E-1,5.177299E-1,-8.661559E0,2.6595244E0,1.8981833E0,9.257729E0,1.954669E1,8.7512714E-1,-8.539321E-1,-2.0529573E-1,-4.2568397E-2,4.9416336E-1,-6.7635626E-2,1.2669399E0,3.610684E-2,-8.0133274E-2,2.1879683E-1,-5.512045E-1,6.473543E-1,-9.6343535E-1,1.0351862E-1,5.6515306E-1,9.675763E-2,1.0938548E0,-2.9348192E-1,2.2529156E0,3.8084126E-1],"categories":[],"categories_nodes":[],"categories_segments":[],"categories_sizes":[],"default_left":[0,0,0,0,0,0,0,0,0,0,0,0,0,0,0,0,0,0,0,0,0,0,0,0,0,0,0,0,0,0,0,0,0,0,0,0,0,0,0,0,0,0,0],"id":29,"left_children":[1,3,5,7,9,11,-1,13,15,17,19,21,23,25,27,29,31,33,35,-1,37,39,41,-1,-1,-1,-1,-1,-1,-1,-1,-1,-1,-1,-1,-1,-1,-1,-1,-1,-1,-1,-1],"loss_changes":[1.5280917E3,7.271557E2,5.5181824E2,1.4878116E2,1.8329636E3,5.615043E2,0E0,2.0573018E2,5.7960834E2,6.704154E2,1.8069832E3,1.8040845E2,4.4843338E2,2.1507669E2,7.681184E2,1.4930391E3,3.717614E2,5.0254123E2,2.2693091E2,0E0,1.0354135E3,2.370373E2,1.4889404E2,0E0,0E0,0E0,0E0,0E0,0E0,0E0,0E0,0E0,0E0,0E0,0E0,0E0,0E0,0E0,0E0,0E0,0E0,0E0,0E0],"parents":[2147483647,0,0,1,1,2,2,3,3,4,4,5,5,7,7,8,8,9,9,10,10,11,11,12,12,13,13,14,14,15,15,16,16,17,17,18,18,20,20,21,21,22,22],"right_children":[2,4,6,8,10,12,-1,14,16,18,20,22,24,26,28,30,32,34,36,-1,38,40,42,-1,-1,-1,-1,-1,-1,-1,-1,-1,-1,-1,-1,-1,-1,-1,-1,-1,-1,-1,-1],"split_conditions":[7E1,1.9E1,3.5756172E1,1.3E1,1.1142417E1,1.05E2,-4.9889946E-1,2.9184045E2,6.302389E1,1.7462784E1,1.1215333E1,8.4E1,1.289647E2,1.0554916E1,1.3396583E1,1.3952832E1,3.1942772E1,9.232001E0,2.672298E2,2.6595244E0,1.2E1,1.643825E1,1.03E2,8.7512714E-1,-8.539321E-1,-2.0529573E-1,-4.2568397E-2,4.9416336E-1,-6.7635626E-2,1.2669399E0,3.610684E-2,-8.0133274E-2,2.1879683E-1,-5.512045E-1,6.473543E-1,-9.6343535E-1,1.0351862E-1,5.6515306E-1,9.675763E-2,1.0938548E0,-2.9348192E-1,2.2529156E0,3.8084126E-1],"split_indices":[4,4,2,4,0,4,0,3,3,2,0,4,3,0,0,0,2,0,3,0,6,0,4,0,0,0,0,0,0,0,0,0,0,0,0,0,0,0,0,0,0,0,0],"split_type":[0,0,0,0,0,0,0,0,0,0,0,0,0,0,0,0,0,0,0,0,0,0,0,0,0,0,0,0,0,0,0,0,0,0,0,0,0,0,0,0,0,0,0],"sum_hessian":[1.964E3,1.945E3,1.9E1,1.612E3,3.33E2,1.7E1,2E0,1.284E3,3.28E2,3.4E1,2.99E2,1.3E1,4E0,1.16E3,1.24E2,5.3E1,2.75E2,1.2E1,2.2E1,2E0,2.97E2,9E0,4E0,2E0,2E0,8.7E1,1.073E3,3.2E1,9.2E1,1.2E1,4.1E1,2.25E2,5E1,6E0,6E0,2E1,2E0,5.8E1,2.39E2,8E0,1E0,3E0,1E0],"tree_param":{"num_deleted":"0","num_feature":"7","num_nodes":"43","size_leaf_vector":"1"}},{"base_weights":[4.820588E-2,-1.4804776E-1,2.4263246E0,-3.3424413E-1,7.624555E-1,7.981585E-1,1.0223349E1,-7.2710115E-1,5.005576E-1,5.1297784E0,-1.3418764E-1,5.4605136E0,-1.5149834E0,7.9903426E0,4.240008E0,-1.2987609E-1,-1.4161278E0,-3.7283983E-2,2.164112E0,2.5588531E0,1.2843483E1,1.1507347E0,-7.466836E-1,7.5366006E0,-5.9965796E0,-6.409303E0,1.0016878E0,2.5632741E0,2.2806134E0,-5.319634E-2,8.748946E-2,-2.3490186E-1,-3.1220159E-2,-4.439312E-2,1.4855143E-1,5.7881743E-2,4.5803332E-1,7.3423827E-1,-2.3465262E-1,8.049671E-1,2.6139634E0,5.3732242E-2,1.7533759E0,-1.2640665E-1,7.96828E-1,-2.1424467E-2,1.0525936E0,-5.35882E-2,-9.958133E-1,-9.11287E-1,8.39039E-1,7.47763E-1,-1.2806568E-1,-1.9312296E-2,1.4697576E0],"categories":[],"categories_nodes":[],"categories_segments":[],"categories_sizes":[],"default_left":[0,0,0,0,0,0,0,0,0,0,0,0,0,0,0,0,0,0,0,0,0,0,0,0,0,0,0,0,0,0,0,0,0,0,0,0,0,0,0,0,0,0,0,0,0,0,0,0,0,0,0,0,0,0,0],"id":30,"left_children":[1,3,5,7,9,11,13,15,17,19,21,23,25,-1,27,29,31,33,35,37,39,41,43,45,47,49,51,-1,53,-1,-1,-1,-1,-1,-1,-1,-1,-1,-1,-1,-1,-1,-1,-1,-1,-1,-1,-1,-1,-1,-1,-1,-1,-1,-1],"loss_changes":[9.244538E2,3.104991E2,1.9087625E3,4.988597E2,1.2185427E3,1.3671434E3,1.0501119E4,4.2531116E2,4.3581357E2,1.0181975E3,2.0469473E2,1.0442029E3,1.0533987E3,0E0,9.894618E2,2.246885E2,4.9359113E2,2.2915964E2,4.5316907E2,9.7929517E2,6.181948E2,8.347408E2,8.036517E2,8.3637036E2,1.4609352E2,1.2368074E3,8.520551E2,0E0,7.4002936E2,0E0,0E0,0E0,0E0,0E0,0E0,0E0,0E0,0E0,0E0,0E0,0E0,0E0,0E0,0E0,0E0,0E0,0E0,0E0,0E0,0E0,0E0,0E0,0E0,0E0,0E0],"parents":[2147483647,0,0,1,1,2,2,3,3,4,4,5,5,6,6,7,7,8,8,9,9,10,10,11,11,12,12,14,14,15,15,16,16,17,17,18,18,19,19,20,20,21,21,22,22,23,23,24,24,25,25,26,26,28,28],"right_children":[2,4,6,8,10,12,14,16,18,20,22,24,26,-1,28,30,32,34,36,38,40,42,44,46,48,50,52,-1,54,-1,-1,-1,-1,-1,-1,-1,-1,-1,-1,-1,-1,-1,-1,-1,-1,-1,-1,-1,-1,-1,-1,-1,-1,-1,-1],"split_conditions":[3.1E1,2.6495938E2,2.1361166E1,2.360283E1,1.2202835E1,1.8844202E1,2.16445E1,2.3469128E1,1.473209E2,1.4E1,1.5269504E1,1.4723666E1,1.2202835E1,7.9903426E0,2.1068459E1,1.3E1,1.8932003E1,1.5E1,9E0,2.3587555E1,3.364989E1,1.5152836E1,3.5E1,1.0934083E1,2.8E1,7E1,1.3E1,2.5632741E0,6.6E1,-5.319634E-2,8.748946E-2,-2.3490186E-1,-3.1220159E-2,-4.439312E-2,1.4855143E-1,5.7881743E-2,4.5803332E-1,7.3423827E-1,-2.3465262E-1,8.049671E-1,2.6139634E0,5.3732242E-2,1.7533759E0,-1.2640665E-1,7.96828E-1,-2.1424467E-2,1.0525936E0,-5.35882E-2,-9.958133E-1,-9.11287E-1,8.39039E-1,7.47763E-1,-1.2806568E-1,-1.9312296E-2,1.4697576E0],"split_indices":[4,3,0,0,0,2,0,2,3,4,0,0,0,0,2,4,0,4,4,2,2,0,6,0,6,4,6,0,4,0,0,0,0,0,0,0,0,0,0,0,0,0,0,0,0,0,0,0,0,0,0,0,0,0,0],